{"learner":{"attributes":{},"feature_names":["gender","age","hypertension","heart_disease","bmi","HbA1c_level","blood_glucose_level","smoking_history_current","smoking_history_ever","smoking_history_former","smoking_history_never","smoking_history_not current"],"feature_types":["int","float","int","int","float","float","int","int","int","int","int","int"],"gradient_booster":{"model":{"cats":{"enc":[],"feature_segments":[],"sorted_idx":[]},"gbtree_model_param":{"num_parallel_tree":"1","num_trees":"300"},"iteration_indptr":[0,1,2,3,4,5,6,7,8,9,10,11,12,13,14,15,16,17,18,19,20,21,22,23,24,25,26,27,28,29,30,31,32,33,34,35,36,37,38,39,40,41,42,43,44,45,46,47,48,49,50,51,52,53,54,55,56,57,58,59,60,61,62,63,64,65,66,67,68,69,70,71,72,73,74,75,76,77,78,79,80,81,82,83,84,85,86,87,88,89,90,91,92,93,94,95,96,97,98,99,100,101,102,103,104,105,106,107,108,109,110,111,112,113,114,115,116,117,118,119,120,121,122,123,124,125,126,127,128,129,130,131,132,133,134,135,136,137,138,139,140,141,142,143,144,145,146,147,148,149,150,151,152,153,154,155,156,157,158,159,160,161,162,163,164,165,166,167,168,169,170,171,172,173,174,175,176,177,178,179,180,181,182,183,184,185,186,187,188,189,190,191,192,193,194,195,196,197,198,199,200,201,202,203,204,205,206,207,208,209,210,211,212,213,214,215,216,217,218,219,220,221,222,223,224,225,226,227,228,229,230,231,232,233,234,235,236,237,238,239,240,241,242,243,244,245,246,247,248,249,250,251,252,253,254,255,256,257,258,259,260,261,262,263,264,265,266,267,268,269,270,271,272,273,274,275,276,277,278,279,280,281,282,283,284,285,286,287,288,289,290,291,292,293,294,295,296,297,298,299,300],"tree_info":[0,0,0,0,0,0,0,0,0,0,0,0,0,0,0,0,0,0,0,0,0,0,0,0,0,0,0,0,0,0,0,0,0,0,0,0,0,0,0,0,0,0,0,0,0,0,0,0,0,0,0,0,0,0,0,0,0,0,0,0,0,0,0,0,0,0,0,0,0,0,0,0,0,0,0,0,0,0,0,0,0,0,0,0,0,0,0,0,0,0,0,0,0,0,0,0,0,0,0,0,0,0,0,0,0,0,0,0,0,0,0,0,0,0,0,0,0,0,0,0,0,0,0,0,0,0,0,0,0,0,0,0,0,0,0,0,0,0,0,0,0,0,0,0,0,0,0,0,0,0,0,0,0,0,0,0,0,0,0,0,0,0,0,0,0,0,0,0,0,0,0,0,0,0,0,0,0,0,0,0,0,0,0,0,0,0,0,0,0,0,0,0,0,0,0,0,0,0,0,0,0,0,0,0,0,0,0,0,0,0,0,0,0,0,0,0,0,0,0,0,0,0,0,0,0,0,0,0,0,0,0,0,0,0,0,0,0,0,0,0,0,0,0,0,0,0,0,0,0,0,0,0,0,0,0,0,0,0,0,0,0,0,0,0,0,0,0,0,0,0,0,0,0,0,0,0,0,0,0,0,0,0,0,0,0,0,0,0,0,0,0,0,0,0,0,0,0,0,0,0],"trees":[{"base_weights":[-1.0188583E-7,-4.7585443E-1,5.8649844E-1,-7.078667E-1,5.8367085E-1,-9.281399E-1,-1.9556224E-1,-9.5619047E-1,-3.0644791E-2,-5.4559063E-2,3.7233052E-1,-4.9126044E-2,-1.7491495E-2,-5.343434E-2,2.7572954E-2,-5.4451942E-2,4.5660343E-2],"categories":[],"categories_nodes":[],"categories_segments":[],"categories_sizes":[],"default_left":[0,0,0,0,0,0,0,0,0,0,0,0,0,0,0,0,0],"id":0,"left_children":[1,3,-1,5,-1,7,9,11,13,-1,15,-1,-1,-1,-1,-1,-1],"loss_changes":[3.4703785E4,1.685039E4,0E0,6.6154736E2,0E0,1.03201416E2,8.9783453E2,6.3138916E1,7.6305984E1,0E0,8.550674E2,0E0,0E0,0E0,0E0,0E0,0E0],"parents":[2147483647,0,0,1,1,3,3,5,5,6,6,7,7,8,8,10,10],"right_children":[2,4,-1,6,-1,8,10,12,14,-1,16,-1,-1,-1,-1,-1,-1],"split_conditions":[6.8E0,2.2E2,5.8649844E-1,5.5E1,5.8367085E-1,1E0,5.7E0,3.935E1,5.7E0,-5.4559063E-2,1.26E2,-4.9126044E-2,-1.7491495E-2,-5.343434E-2,2.7572954E-2,-5.4451942E-2,4.5660343E-2],"split_indices":[5,6,0,1,0,2,5,4,5,0,6,0,0,0,0,0,0],"split_type":[0,0,0,0,0,0,0,0,0,0,0,0,0,0,0,0,0],"sum_hessian":[6.2153594E3,5.9739707E3,2.4138902E2,5.8629487E3,1.1102186E2,4.0994956E3,1.7634529E3,3.9751885E3,1.2430719E2,6.839226E2,1.0795303E3,3.809161E3,1.6602779E2,4.436213E1,7.994506E1,2.9134497E2,7.881853E2],"tree_param":{"num_deleted":"0","num_feature":"12","num_nodes":"17","size_leaf_vector":"1"}},{"base_weights":[-9.782809E-3,-4.6404254E-1,3.488739E-1,-6.9339985E-1,3.4864384E-1,-9.252052E-1,-2.0471439E-1,-9.603087E-1,-1.9993985E-1,-5.431428E-2,3.2016608E-1,-4.899322E-2,-1.1720315E-2,-5.377675E-2,1.8521888E-2,-5.4211367E-2,4.0136676E-2],"categories":[],"categories_nodes":[],"categories_segments":[],"categories_sizes":[],"default_left":[0,0,0,0,0,0,0,0,0,0,0,0,0,0,0,0,0],"id":1,"left_children":[1,3,-1,5,-1,7,9,11,13,-1,15,-1,-1,-1,-1,-1,-1],"loss_changes":[1.9843633E4,1.0017724E4,0E0,6.4499634E2,0E0,9.81521E1,8.488418E2,5.2068848E1,9.009131E1,0E0,7.803451E2,0E0,0E0,0E0,0E0,0E0,0E0],"parents":[2147483647,0,0,1,1,3,3,5,5,6,6,7,7,8,8,10,10],"right_children":[2,4,-1,6,-1,8,10,12,14,-1,16,-1,-1,-1,-1,-1,-1],"split_conditions":[6.8E0,2.2E2,3.488739E-1,5.4E1,3.4864384E-1,3.935E1,5.7E0,1E0,5.7E0,-5.431428E-2,1.26E2,-4.899322E-2,-1.1720315E-2,-5.377675E-2,1.8521888E-2,-5.4211367E-2,4.0136676E-2],"split_indices":[5,6,0,1,0,4,5,2,5,0,6,0,0,0,0,0,0],"split_type":[0,0,0,0,0,0,0,0,0,0,0,0,0,0,0,0,0],"sum_hessian":[6.2498506E3,5.8692114E3,3.806389E2,5.694498E3,1.7471361E2,3.8617866E3,1.8327112E3,3.6831924E3,1.7859418E2,6.8355914E2,1.1491521E3,3.5862305E3,9.696209E1,7.009881E1,1.0849536E2,2.935629E2,8.555892E2],"tree_param":{"num_deleted":"0","num_feature":"12","num_nodes":"17","size_leaf_vector":"1"}},{"base_weights":[-1.41208805E-2,-4.52035E-1,2.6095366E-1,-6.790507E-1,2.6096138E-1,-9.40328E-1,-2.42871E-1,-9.9315685E-1,-5.865173E-1,-5.409759E-2,2.3601778E-1,-5.1508874E-2,-4.0840186E-2,-5.3940006E-2,-1.3318494E-2,-5.4013114E-2,3.3258792E-2],"categories":[],"categories_nodes":[],"categories_segments":[],"categories_sizes":[],"default_left":[0,0,0,0,0,0,0,0,0,0,0,0,0,0,0,0,0],"id":2,"left_children":[1,3,-1,5,-1,7,9,11,13,-1,15,-1,-1,-1,-1,-1,-1],"loss_changes":[1.4289593E4,7.411464E3,0E0,6.3036865E2,0E0,6.409155E1,8.33725E2,1.8804443E1,7.094353E1,0E0,7.47142E2,0E0,0E0,0E0,0E0,0E0,0E0],"parents":[2147483647,0,0,1,1,3,3,5,5,6,6,7,7,8,8,10,10],"right_children":[2,4,-1,6,-1,8,10,12,14,-1,16,-1,-1,-1,-1,-1,-1],"split_conditions":[6.8E0,2.2E2,2.6095366E-1,5.1E1,2.6096138E-1,3.268E1,5.7E0,4.3E1,5.7E0,-5.409759E-2,1.26E2,-5.1508874E-2,-4.0840186E-2,-5.3940006E-2,-1.3318494E-2,-5.4013114E-2,3.3258792E-2],"split_indices":[5,6,0,1,0,4,5,1,5,0,6,0,0,0,0,0,0],"split_type":[0,0,0,0,0,0,0,0,0,0,0,0,0,0,0,0,0],"sum_hessian":[6.233367E3,5.7528794E3,4.804878E2,5.532306E3,2.205731E2,3.4591025E3,2.0732036E3,3.0081387E3,4.509638E2,7.5284814E2,1.3203555E3,2.482221E3,5.259178E2,1.7677364E2,2.741902E2,3.2426825E2,9.960873E2],"tree_param":{"num_deleted":"0","num_feature":"12","num_nodes":"17","size_leaf_vector":"1"}},{"base_weights":[-1.668105E-2,-4.403218E-1,2.125388E-1,-6.647955E-1,2.1258786E-1,-9.3901074E-1,-2.4658804E-1,-9.9053E-1,-6.0389763E-1,-5.3881563E-2,2.0458488E-1,-5.1188953E-2,-4.056099E-2,-5.3702086E-2,-1.5251914E-2,-5.380127E-2,2.9837176E-2],"categories":[],"categories_nodes":[],"categories_segments":[],"categories_sizes":[],"default_left":[0,0,0,0,0,0,0,0,0,0,0,0,0,0,0,0,0],"id":3,"left_children":[1,3,-1,5,-1,7,9,11,13,-1,15,-1,-1,-1,-1,-1,-1],"loss_changes":[1.1196286E4,5.936585E3,0E0,6.164446E2,0E0,5.546875E1,7.992023E2,1.5941406E1,6.0834045E1,0E0,6.946678E2,0E0,0E0,0E0,0E0,0E0,0E0],"parents":[2147483647,0,0,1,1,3,3,5,5,6,6,7,7,8,8,10,10],"right_children":[2,4,-1,6,-1,8,10,12,14,-1,16,-1,-1,-1,-1,-1,-1],"split_conditions":[6.8E0,2.2E2,2.125388E-1,5E1,2.1258786E-1,3.251E1,5.7E0,4.3E1,5.7E0,-5.3881563E-2,1.26E2,-5.1188953E-2,-4.056099E-2,-5.3702086E-2,-1.5251914E-2,-5.380127E-2,2.9837176E-2],"split_indices":[5,6,0,1,0,4,5,1,5,0,6,0,0,0,0,0,0],"split_type":[0,0,0,0,0,0,0,0,0,0,0,0,0,0,0,0,0],"sum_hessian":[6.191051E3,5.632769E3,5.582818E2,5.3764146E3,2.5635468E2,3.2464792E3,2.129935E3,2.8121865E3,4.3429282E2,7.489708E2,1.3809641E3,2.3683252E3,4.4386142E2,1.6777206E2,2.6652075E2,3.2334006E2,1.0576241E3],"tree_param":{"num_deleted":"0","num_feature":"12","num_nodes":"17","size_leaf_vector":"1"}},{"base_weights":[-1.8331558E-2,-4.2896962E-1,1.8143234E-1,-6.50636E-1,1.8148337E-1,-9.295697E-1,-2.3758902E-1,-9.820446E-1,-5.843136E-1,-5.3671073E-2,1.9218835E-1,-5.085197E-2,-3.9782755E-2,-5.3469248E-2,-1.4362975E-2,-5.358631E-2,2.7650384E-2],"categories":[],"categories_nodes":[],"categories_segments":[],"categories_sizes":[],"default_left":[0,0,0,0,0,0,0,0,0,0,0,0,0,0,0,0,0],"id":4,"left_children":[1,3,-1,5,-1,7,9,11,13,-1,15,-1,-1,-1,-1,-1,-1],"loss_changes":[9.184467E3,4.961438E3,0E0,6.0205786E2,0E0,5.595166E1,7.5763763E2,1.6847168E1,5.936264E1,0E0,6.360286E2,0E0,0E0,0E0,0E0,0E0,0E0],"parents":[2147483647,0,0,1,1,3,3,5,5,6,6,7,7,8,8,10,10],"right_children":[2,4,-1,6,-1,8,10,12,14,-1,16,-1,-1,-1,-1,-1,-1],"split_conditions":[6.8E0,2.2E2,1.8143234E-1,5E1,1.8148337E-1,3.268E1,5.7E0,4.3E1,5.7E0,-5.3671073E-2,1.26E2,-5.085197E-2,-3.9782755E-2,-5.3469248E-2,-1.4362975E-2,-5.358631E-2,2.7650384E-2],"split_indices":[5,6,0,1,0,4,5,1,5,0,6,0,0,0,0,0,0],"split_type":[0,0,0,0,0,0,0,0,0,0,0,0,0,0,0,0,0],"sum_hessian":[6.1308003E3,5.5111455E3,6.1965497E2,5.226533E3,2.8461255E2,3.1189993E3,2.1075337E3,2.7058914E3,4.1310794E2,7.1517035E2,1.3923633E3,2.2744116E3,4.3147974E2,1.5591241E2,2.5719553E2,3.0877713E2,1.0835862E3],"tree_param":{"num_deleted":"0","num_feature":"12","num_nodes":"17","size_leaf_vector":"1"}},{"base_weights":[-1.9435588E-2,-4.1797477E-1,1.5962957E-1,-6.3656783E-1,1.5967274E-1,-8.760684E-1,-1.5358166E-1,-9.08957E-1,6.553943E-2,-5.3441007E-2,2.8257135E-1,-4.698747E-2,-1.355135E-2,-5.2286167E-2,2.9778754E-2,-5.331079E-2,3.1327065E-2],"categories":[],"categories_nodes":[],"categories_segments":[],"categories_sizes":[],"default_left":[0,0,0,0,0,0,0,0,0,0,0,0,0,0,0,0,0],"id":5,"left_children":[1,3,-1,5,-1,7,9,11,13,-1,15,-1,-1,-1,-1,-1,-1],"loss_changes":[7.756438E3,4.2573115E3,0E0,5.879004E2,0E0,1.0529321E2,6.734707E2,6.4244385E1,6.872232E1,0E0,5.309029E2,0E0,0E0,0E0,0E0,0E0,0E0],"parents":[2147483647,0,0,1,1,3,3,5,5,6,6,7,7,8,8,10,10],"right_children":[2,4,-1,6,-1,8,10,12,14,-1,16,-1,-1,-1,-1,-1,-1],"split_conditions":[6.8E0,2.2E2,1.5962957E-1,5.5E1,1.5967274E-1,1E0,5.7E0,3.935E1,5.7E0,-5.3441007E-2,1.26E2,-4.698747E-2,-1.355135E-2,-5.2286167E-2,2.9778754E-2,-5.331079E-2,3.1327065E-2],"split_indices":[5,6,0,1,0,2,5,4,5,0,6,0,0,0,0,0,0],"split_type":[0,0,0,0,0,0,0,0,0,0,0,0,0,0,0,0,0],"sum_hessian":[6.057114E3,5.3892954E3,6.6781854E2,5.082486E3,3.0680957E2,3.397124E3,1.6853616E3,3.2825068E3,1.1461712E2,5.4347156E2,1.14189E3,3.1309072E3,1.5159962E2,3.669989E1,7.791723E1,2.316065E2,9.102835E2],"tree_param":{"num_deleted":"0","num_feature":"12","num_nodes":"17","size_leaf_vector":"1"}},{"base_weights":[-2.0167237E-2,-4.0729818E-1,1.4345506E-1,-6.2256694E-1,1.4348826E-1,-9.110071E-1,-2.1852165E-1,-9.678682E-1,-5.579172E-1,-5.3289425E-2,1.7480294E-1,-5.039556E-2,-3.9250046E-2,-5.312683E-2,-1.2979592E-2,-5.320382E-2,2.4311984E-2],"categories":[],"categories_nodes":[],"categories_segments":[],"categories_sizes":[],"default_left":[0,0,0,0,0,0,0,0,0,0,0,0,0,0,0,0,0],"id":6,"left_children":[1,3,-1,5,-1,7,9,11,13,-1,15,-1,-1,-1,-1,-1,-1],"loss_changes":[6.6833696E3,3.7188738E3,0E0,5.761216E2,0E0,5.7383057E1,6.870527E2,1.7394287E1,6.0319954E1,0E0,5.439631E2,0E0,0E0,0E0,0E0,0E0,0E0],"parents":[2147483647,0,0,1,1,3,3,5,5,6,6,7,7,8,8,10,10],"right_children":[2,4,-1,6,-1,8,10,12,14,-1,16,-1,-1,-1,-1,-1,-1],"split_conditions":[6.8E0,2.2E2,1.4345506E-1,5E1,1.4348826E-1,3.251E1,5.7E0,4.2E1,5.7E0,-5.3289425E-2,1.26E2,-5.039556E-2,-3.9250046E-2,-5.312683E-2,-1.2979592E-2,-5.320382E-2,2.4311984E-2],"split_indices":[5,6,0,1,0,4,5,1,5,0,6,0,0,0,0,0,0],"split_type":[0,0,0,0,0,0,0,0,0,0,0,0,0,0,0,0,0],"sum_hessian":[5.9731177E3,5.268107E3,7.050108E2,4.9441387E3,3.2396814E2,2.88403E3,2.060109E3,2.4825093E3,4.0152075E2,6.526073E2,1.4075016E3,2.0328569E3,4.4965244E2,1.4822888E2,2.5329187E2,2.822618E2,1.1252397E3],"tree_param":{"num_deleted":"0","num_feature":"12","num_nodes":"17","size_leaf_vector":"1"}},{"base_weights":[-2.0666711E-2,-3.9694408E-1,1.3096331E-1,-6.086596E-1,1.3098665E-1,-5.3231325E-2,-3.4882435E-1,-8.7245613E-1,8.6957835E-2,-4.7951292E-2,-2.3585986E-2,-5.3146847E-2,1.9366262E-2],"categories":[],"categories_nodes":[],"categories_segments":[],"categories_sizes":[],"default_left":[0,0,0,0,0,0,0,0,0,0,0,0,0],"id":7,"left_children":[1,3,-1,5,-1,-1,7,9,11,-1,-1,-1,-1],"loss_changes":[5.844123E3,3.2903164E3,0E0,5.697833E2,0E0,0E0,6.999304E2,4.7878906E1,5.788793E2,0E0,0E0,0E0,0E0],"parents":[2147483647,0,0,1,1,3,3,6,6,7,7,8,8],"right_children":[2,4,-1,6,-1,-1,8,10,12,-1,-1,-1,-1],"split_conditions":[6.8E0,2.2E2,1.3096331E-1,5.7E0,1.3098665E-1,-5.3231325E-2,4.4E1,3.05E1,1.26E2,-4.7951292E-2,-2.3585986E-2,-5.3146847E-2,1.9366262E-2],"split_indices":[5,6,0,5,0,0,1,4,6,0,0,0,0],"split_type":[0,0,0,0,0,0,0,0,0,0,0,0,0],"sum_hessian":[5.8812183E3,5.1482695E3,7.3294836E2,4.811396E3,3.3687375E2,1.7454065E3,3.0659895E3,1.3921696E3,1.67382E3,1.1437056E3,2.4846397E2,3.4614322E2,1.3276768E3],"tree_param":{"num_deleted":"0","num_feature":"12","num_nodes":"13","size_leaf_vector":"1"}},{"base_weights":[-2.0980144E-2,-3.868451E-1,1.21021084E-1,-5.947902E-1,1.2103533E-1,-5.3060878E-2,-3.371967E-1,-8.620501E-1,8.197002E-2,-4.7568273E-2,-2.2879792E-2,-5.2969314E-2,1.8106943E-2],"categories":[],"categories_nodes":[],"categories_segments":[],"categories_sizes":[],"default_left":[0,0,0,0,0,0,0,0,0,0,0,0,0],"id":8,"left_children":[1,3,-1,5,-1,-1,7,9,11,-1,-1,-1,-1],"loss_changes":[5.16778E3,2.938898E3,0E0,5.625763E2,0E0,0E0,6.644362E2,4.8005493E1,5.3755927E2,0E0,0E0,0E0,0E0],"parents":[2147483647,0,0,1,1,3,3,6,6,7,7,8,8],"right_children":[2,4,-1,6,-1,-1,8,10,12,-1,-1,-1,-1],"split_conditions":[6.8E0,2.2E2,1.21021084E-1,5.7E0,1.2103533E-1,-5.3060878E-2,4.4E1,3.05E1,1.26E2,-4.7568273E-2,-2.2879792E-2,-5.2969314E-2,1.8106943E-2],"split_indices":[5,6,0,5,0,0,1,4,6,0,0,0,0],"split_type":[0,0,0,0,0,0,0,0,0,0,0,0,0],"sum_hessian":[5.783492E3,5.030474E3,7.530181E2,4.6843125E3,3.4616183E2,1.6654836E3,3.0188286E3,1.3399604E3,1.6788683E3,1.0964747E3,2.4348575E2,3.3034055E2,1.3485277E3],"tree_param":{"num_deleted":"0","num_feature":"12","num_nodes":"13","size_leaf_vector":"1"}},{"base_weights":[-2.1159003E-2,-3.7700495E-1,1.1292082E-1,-5.8100086E-1,1.12926796E-1,-5.289963E-2,-3.2583496E-1,-8.51562E-1,7.7293836E-2,-4.7184218E-2,-2.2182634E-2,-5.2800782E-2,1.6948145E-2],"categories":[],"categories_nodes":[],"categories_segments":[],"categories_sizes":[],"default_left":[0,0,0,0,0,0,0,0,0,0,0,0,0],"id":9,"left_children":[1,3,-1,5,-1,-1,7,9,11,-1,-1,-1,-1],"loss_changes":[4.6100996E3,2.644238E3,0E0,5.550801E2,0E0,0E0,6.304615E2,4.8094666E1,4.9988428E2,0E0,0E0,0E0,0E0],"parents":[2147483647,0,0,1,1,3,3,6,6,7,7,8,8],"right_children":[2,4,-1,6,-1,-1,8,10,12,-1,-1,-1,-1],"split_conditions":[6.8E0,2.2E2,1.1292082E-1,5.7E0,1.12926796E-1,-5.289963E-2,4.4E1,3.05E1,1.26E2,-4.7184218E-2,-2.2182634E-2,-5.2800782E-2,1.6948145E-2],"split_indices":[5,6,0,5,0,0,1,4,6,0,0,0,0],"split_type":[0,0,0,0,0,0,0,0,0,0,0,0,0],"sum_hessian":[5.681169E3,4.914795E3,7.6637396E2,4.5624336E3,3.5236154E2,1.5889673E3,2.973466E3,1.2900186E3,1.6834475E3,1.0512832E3,2.387354E2,3.1521042E2,1.368237E3],"tree_param":{"num_deleted":"0","num_feature":"12","num_nodes":"13","size_leaf_vector":"1"}},{"base_weights":[-2.1234795E-2,-3.6740094E-1,1.0619662E-1,-5.672914E-1,1.0619511E-1,-5.274701E-2,-3.1473672E-1,-8.5485095E-1,6.3007556E-2,-4.7092617E-2,-2.2560203E-2,-5.266098E-2,1.5505033E-2],"categories":[],"categories_nodes":[],"categories_segments":[],"categories_sizes":[],"default_left":[0,0,0,0,0,0,0,0,0,0,0,0,0],"id":10,"left_children":[1,3,-1,5,-1,-1,7,9,11,-1,-1,-1,-1],"loss_changes":[4.1418135E3,2.3928015E3,0E0,5.473025E2,0E0,0E0,5.9802325E2,4.193628E1,4.7626736E2,0E0,0E0,0E0,0E0],"parents":[2147483647,0,0,1,1,3,3,6,6,7,7,8,8],"right_children":[2,4,-1,6,-1,-1,8,10,12,-1,-1,-1,-1],"split_conditions":[6.8E0,2.2E2,1.0619662E-1,5.7E0,1.0619511E-1,-5.274701E-2,4.3E1,3.073E1,1.26E2,-4.7092617E-2,-2.2560203E-2,-5.266098E-2,1.5505033E-2],"split_indices":[5,6,0,5,0,0,1,4,6,0,0,0,0],"split_type":[0,0,0,0,0,0,0,0,0,0,0,0,0],"sum_hessian":[5.5755166E3,4.8015225E3,7.7399414E2,4.4456006E3,3.5592175E2,1.5157382E3,2.9298623E3,1.2052638E3,1.7245985E3,9.904505E2,2.1481335E2,3.119812E2,1.4126174E3],"tree_param":{"num_deleted":"0","num_feature":"12","num_nodes":"13","size_leaf_vector":"1"}},{"base_weights":[-2.1231102E-2,-3.5801056E-1,1.0052865E-1,-5.5365795E-1,1.0052031E-1,-5.26025E-2,-3.0389684E-1,-8.44529E-1,5.942627E-2,-4.6714626E-2,-2.1869672E-2,-5.2508265E-2,1.4544849E-2],"categories":[],"categories_nodes":[],"categories_segments":[],"categories_sizes":[],"default_left":[0,0,0,0,0,0,0,0,0,0,0,0,0],"id":11,"left_children":[1,3,-1,5,-1,-1,7,9,11,-1,-1,-1,-1],"loss_changes":[3.7427522E3,2.1752354E3,0E0,5.3926E2,0E0,0E0,5.6752496E2,4.202997E1,4.4432355E2,0E0,0E0,0E0,0E0],"parents":[2147483647,0,0,1,1,3,3,6,6,7,7,8,8],"right_children":[2,4,-1,6,-1,-1,8,10,12,-1,-1,-1,-1],"split_conditions":[6.8E0,2.2E2,1.0052865E-1,5.7E0,1.0052031E-1,-5.26025E-2,4.3E1,3.073E1,1.26E2,-4.6714626E-2,-2.1869672E-2,-5.2508265E-2,1.4544849E-2],"split_indices":[5,6,0,5,0,0,1,4,6,0,0,0,0],"split_type":[0,0,0,0,0,0,0,0,0,0,0,0,0],"sum_hessian":[5.4676504E3,4.6909336E3,7.767168E2,4.333706E3,3.5722742E2,1.4456783E3,2.8880276E3,1.1602411E3,1.7277866E3,9.4958563E2,2.106554E2,2.9760983E2,1.4301768E3],"tree_param":{"num_deleted":"0","num_feature":"12","num_nodes":"13","size_leaf_vector":"1"}},{"base_weights":[-2.116328E-2,-3.48819E-1,9.568967E-2,-5.4010844E-1,9.5675096E-2,-5.2465618E-2,-2.9331726E-1,-7.608115E-1,1.1101742E-1,-4.324552E-2,-1.007309E-2,-9.89567E-3,5.040721E-2],"categories":[],"categories_nodes":[],"categories_segments":[],"categories_sizes":[],"default_left":[0,0,0,0,0,0,0,0,0,0,0,0,0],"id":12,"left_children":[1,3,-1,5,-1,-1,7,9,11,-1,-1,-1,-1],"loss_changes":[3.3985325E3,1.9848599E3,0E0,5.3095374E2,0E0,0E0,5.385882E2,7.676581E1,4.2382245E2,0E0,0E0,0E0,0E0],"parents":[2147483647,0,0,1,1,3,3,6,6,7,7,8,8],"right_children":[2,4,-1,6,-1,-1,8,10,12,-1,-1,-1,-1],"split_conditions":[6.8E0,2.2E2,9.568967E-2,5.7E0,9.5675096E-2,-5.2465618E-2,4.8E1,3.268E1,3.085E1,-4.324552E-2,-1.007309E-2,-9.89567E-3,5.040721E-2],"split_indices":[5,6,0,5,0,0,1,4,4,0,0,0,0],"split_type":[0,0,0,0,0,0,0,0,0,0,0,0,0],"sum_hessian":[5.358412E3,4.583145E3,7.752667E2,4.2265337E3,3.5661133E2,1.3786715E3,2.8478623E3,1.3203657E3,1.5274966E3,1.1127322E3,2.0763351E2,1.1368091E3,3.9068747E2],"tree_param":{"num_deleted":"0","num_feature":"12","num_nodes":"13","size_leaf_vector":"1"}},{"base_weights":[-2.102322E-2,-3.3969417E-1,9.1513656E-2,-5.264606E-1,9.149327E-2,-5.2335896E-2,-2.8283665E-1,-8.2441884E-1,5.5021547E-2,-4.6128094E-2,-2.1235375E-2,-5.2357495E-2,1.3556758E-2],"categories":[],"categories_nodes":[],"categories_segments":[],"categories_sizes":[],"default_left":[0,0,0,0,0,0,0,0,0,0,0,0,0],"id":13,"left_children":[1,3,-1,5,-1,-1,7,9,11,-1,-1,-1,-1],"loss_changes":[3.0983916E3,1.8165026E3,0E0,5.226915E2,0E0,0E0,5.1451056E2,4.1983826E1,4.129336E2,0E0,0E0,0E0,0E0],"parents":[2147483647,0,0,1,1,3,3,6,6,7,7,8,8],"right_children":[2,4,-1,6,-1,-1,8,10,12,-1,-1,-1,-1],"split_conditions":[6.8E0,2.2E2,9.1513656E-2,5.7E0,9.149327E-2,-5.2335896E-2,4.3E1,3.026E1,1.26E2,-4.6128094E-2,-2.1235375E-2,-5.2357495E-2,1.3556758E-2],"split_indices":[5,6,0,5,0,0,1,4,6,0,0,0,0],"split_type":[0,0,0,0,0,0,0,0,0,0,0,0,0],"sum_hessian":[5.2498633E3,4.4795903E3,7.7027295E2,4.1252275E3,3.5436264E2,1.3146038E3,2.8106238E3,1.0792155E3,1.7314083E3,8.6541736E2,2.137981E2,2.8320874E2,1.4481996E3],"tree_param":{"num_deleted":"0","num_feature":"12","num_nodes":"13","size_leaf_vector":"1"}},{"base_weights":[-2.086714E-2,-3.3086112E-1,8.787637E-2,-5.1309377E-1,8.785055E-2,-5.221292E-2,-2.7278388E-1,-8.1375617E-1,5.191304E-2,-4.574529E-2,-2.0565093E-2,-9.099825E-3,5.07331E-2],"categories":[],"categories_nodes":[],"categories_segments":[],"categories_sizes":[],"default_left":[0,0,0,0,0,0,0,0,0,0,0,0,0],"id":14,"left_children":[1,3,-1,5,-1,-1,7,9,11,-1,-1,-1,-1],"loss_changes":[2.834812E3,1.6669363E3,0E0,5.138727E2,0E0,0E0,4.8742273E2,4.1992615E1,3.9087656E2,0E0,0E0,0E0,0E0],"parents":[2147483647,0,0,1,1,3,3,6,6,7,7,8,8],"right_children":[2,4,-1,6,-1,-1,8,10,12,-1,-1,-1,-1],"split_conditions":[6.8E0,2.2E2,8.787637E-2,5.7E0,8.785055E-2,-5.221292E-2,4.3E1,3.026E1,3.284E1,-4.574529E-2,-2.0565093E-2,-9.099825E-3,5.07331E-2],"split_indices":[5,6,0,5,0,0,1,4,4,0,0,0,0],"split_type":[0,0,0,0,0,0,0,0,0,0,0,0,0],"sum_hessian":[5.1400728E3,4.3777896E3,7.622835E2,4.0270562E3,3.5073328E2,1.2533629E3,2.773693E3,1.0397974E3,1.7338958E3,8.299348E2,2.0986253E2,1.3956255E3,3.382703E2],"tree_param":{"num_deleted":"0","num_feature":"12","num_nodes":"13","size_leaf_vector":"1"}},{"base_weights":[-2.064845E-2,-3.2205853E-1,8.4682934E-2,-4.9962237E-1,8.465195E-2,-5.2096277E-2,-2.6281542E-1,-6.096817E-1,2.2888489E-1,-3.5665933E-2,1.4910414E-2,-3.9006558E-3,5.481347E-2],"categories":[],"categories_nodes":[],"categories_segments":[],"categories_sizes":[],"default_left":[0,0,0,0,0,0,0,0,0,0,0,0,0],"id":15,"left_children":[1,3,-1,5,-1,-1,7,9,11,-1,-1,-1,-1],"loss_changes":[2.6012573E3,1.5327823E3,0E0,5.0512756E2,0E0,0E0,4.675708E2,1.5144318E2,3.0205557E2,0E0,0E0,0E0,0E0],"parents":[2147483647,0,0,1,1,3,3,6,6,7,7,8,8],"right_children":[2,4,-1,6,-1,-1,8,10,12,-1,-1,-1,-1],"split_conditions":[6.8E0,2.2E2,8.4682934E-2,5.7E0,8.465195E-2,-5.2096277E-2,5.6E1,3.665E1,3.073E1,-3.5665933E-2,1.4910414E-2,-3.9006558E-3,5.481347E-2],"split_indices":[5,6,0,5,0,0,1,4,4,0,0,0,0],"split_type":[0,0,0,0,0,0,0,0,0,0,0,0,0],"sum_hessian":[5.0322197E3,4.280443E3,7.517768E2,3.9344995E3,3.4594324E2,1.1948397E3,2.73966E3,1.6062809E3,1.1333789E3,1.4419003E3,1.6438063E2,8.3784326E2,2.9553564E2],"tree_param":{"num_deleted":"0","num_feature":"12","num_nodes":"13","size_leaf_vector":"1"}},{"base_weights":[-2.0395387E-2,-3.1341997E-1,8.185955E-2,-4.862826E-1,8.182363E-2,-5.1985618E-2,-2.5312328E-1,-5.2304637E-2,-4.2346906E-2,-2.0007683E-2,2.9964248E-2],"categories":[],"categories_nodes":[],"categories_segments":[],"categories_sizes":[],"default_left":[0,0,0,0,0,0,0,0,0,0,0],"id":16,"left_children":[1,3,-1,5,-1,-1,7,-1,9,-1,-1],"loss_changes":[2.393193E3,1.4120613E3,0E0,4.96112E2,0E0,0E0,4.5254037E2,0E0,4.9160004E2,0E0,0E0],"parents":[2147483647,0,0,1,1,3,3,6,6,8,8],"right_children":[2,4,-1,6,-1,-1,8,-1,10,-1,-1],"split_conditions":[6.8E0,2.2E2,8.185955E-2,5.7E0,8.182363E-2,-5.1985618E-2,1.26E2,-5.2304637E-2,2.822E1,-2.0007683E-2,2.9964248E-2],"split_indices":[5,6,0,5,0,0,6,0,4,0,0],"split_type":[0,0,0,0,0,0,0,0,0,0,0],"sum_hessian":[4.925113E3,4.185942E3,7.3917096E2,3.845757E3,3.401849E2,1.138927E3,2.7068298E3,5.6757446E2,2.1392554E3,1.3736271E3,7.6562836E2],"tree_param":{"num_deleted":"0","num_feature":"12","num_nodes":"11","size_leaf_vector":"1"}},{"base_weights":[-2.0149922E-2,-3.0492175E-1,7.9348E-2,-4.7302556E-1,7.930731E-2,-5.188057E-2,-2.4370007E-1,-8.015595E-1,5.2706003E-2,-4.5111045E-2,-2.0916343E-2,-5.209435E-2,1.2416807E-2],"categories":[],"categories_nodes":[],"categories_segments":[],"categories_sizes":[],"default_left":[0,0,0,0,0,0,0,0,0,0,0,0,0],"id":17,"left_children":[1,3,-1,5,-1,-1,7,9,11,-1,-1,-1,-1],"loss_changes":[2.2068577E3,1.3029026E3,0E0,4.8689746E2,0E0,0E0,4.4269434E2,3.545685E1,3.7480368E2,0E0,0E0,0E0,0E0],"parents":[2147483647,0,0,1,1,3,3,6,6,7,7,8,8],"right_children":[2,4,-1,6,-1,-1,8,10,12,-1,-1,-1,-1],"split_conditions":[6.8E0,2.2E2,7.9348E-2,5.7E0,7.930731E-2,-5.188057E-2,4.2E1,3.026E1,1.26E2,-4.5111045E-2,-2.0916343E-2,-5.209435E-2,1.2416807E-2],"split_indices":[5,6,0,5,0,0,1,4,6,0,0,0,0],"split_type":[0,0,0,0,0,0,0,0,0,0,0,0,0],"sum_hessian":[4.819993E3,4.0951614E3,7.248318E2,3.761535E3,3.336265E2,1.0855211E3,2.6760137E3,9.279101E2,1.7481036E3,7.3381036E2,1.9409972E2,2.644004E2,1.4837032E3],"tree_param":{"num_deleted":"0","num_feature":"12","num_nodes":"13","size_leaf_vector":"1"}},{"base_weights":[-1.990079E-2,-2.9669687E-1,7.710168E-2,-4.6011138E-1,7.705632E-2,-5.178082E-2,-2.3470344E-1,-5.2075833E-2,-3.742491E-2,-1.7161628E-2,3.1461623E-2],"categories":[],"categories_nodes":[],"categories_segments":[],"categories_sizes":[],"default_left":[0,0,0,0,0,0,0,0,0,0,0],"id":18,"left_children":[1,3,-1,5,-1,-1,7,-1,9,-1,-1],"loss_changes":[2.0393242E3,1.2040708E3,0E0,4.771939E2,0E0,0E0,4.2110107E2,0E0,4.338628E2,0E0,0E0],"parents":[2147483647,0,0,1,1,3,3,6,6,8,8],"right_children":[2,4,-1,6,-1,-1,8,-1,10,-1,-1],"split_conditions":[6.8E0,2.2E2,7.710168E-2,5.7E0,7.705632E-2,-5.178082E-2,1.26E2,-5.2075833E-2,2.96E1,-1.7161628E-2,3.1461623E-2],"split_indices":[5,6,0,5,0,0,6,0,4,0,0],"split_type":[0,0,0,0,0,0,0,0,0,0,0],"sum_hessian":[4.714917E3,4.005838E3,7.0907904E2,3.6794226E3,3.2641516E2,1.0345205E3,2.644902E3,5.188153E2,2.126087E3,1.4578364E3,6.682504E2],"tree_param":{"num_deleted":"0","num_feature":"12","num_nodes":"11","size_leaf_vector":"1"}},{"base_weights":[-1.961447E-2,-2.884826E-1,7.5082816E-2,-4.4712958E-1,7.503288E-2,-5.1686056E-2,-2.2581042E-1,-8.270978E-1,3.9260894E-2,-4.2623084E-2,3.5751015E-2,-5.1882613E-2,1.1094196E-2],"categories":[],"categories_nodes":[],"categories_segments":[],"categories_sizes":[],"default_left":[0,0,0,0,0,0,0,0,0,0,0,0,0],"id":19,"left_children":[1,3,-1,5,-1,-1,7,9,11,-1,-1,-1,-1],"loss_changes":[1.8877543E3,1.1139109E3,0E0,4.6756976E2,0E0,0E0,4.1722638E2,3.193634E1,3.5770206E2,0E0,0E0,0E0,0E0],"parents":[2147483647,0,0,1,1,3,3,6,6,7,7,8,8],"right_children":[2,4,-1,6,-1,-1,8,10,12,-1,-1,-1,-1],"split_conditions":[6.8E0,2.2E2,7.5082816E-2,5.7E0,7.503288E-2,-5.1686056E-2,3.9E1,1E0,1.26E2,-4.2623084E-2,3.5751015E-2,-5.1882613E-2,1.1094196E-2],"split_indices":[5,6,0,5,0,0,1,2,6,0,0,0,0],"split_type":[0,0,0,0,0,0,0,0,0,0,0,0,0],"sum_hessian":[4.6132373E3,3.9210454E3,6.9219196E2,3.602366E3,3.1867957E2,9.8582697E2,2.6165388E3,7.999082E2,1.8166307E3,7.874046E2,1.2503564E1,2.627186E2,1.5539121E3],"tree_param":{"num_deleted":"0","num_feature":"12","num_nodes":"13","size_leaf_vector":"1"}},{"base_weights":[-1.9326596E-2,-2.8050402E-1,7.3260486E-2,-4.3445948E-1,7.320602E-2,-5.1595986E-2,-2.1729913E-1,-3.503283E-1,9.493706E-1,-4.2150177E-2,-5.5908062E-3,-5.0590564E-2,6.0672045E-2],"categories":[],"categories_nodes":[],"categories_segments":[],"categories_sizes":[],"default_left":[0,0,0,0,0,0,0,0,0,0,0,0,0],"id":20,"left_children":[1,3,-1,5,-1,-1,7,9,11,-1,-1,-1,-1],"loss_changes":[1.7503826E3,1.0317681E3,0E0,4.5757483E2,0E0,0E0,4.0216617E2,2.7309543E2,1.3861127E2,0E0,0E0,0E0,0E0],"parents":[2147483647,0,0,1,1,3,3,6,6,7,7,8,8],"right_children":[2,4,-1,6,-1,-1,8,10,12,-1,-1,-1,-1],"split_conditions":[6.8E0,2.2E2,7.3260486E-2,5.7E0,7.320602E-2,-5.1595986E-2,1E0,3.9E1,1.26E2,-4.2150177E-2,-5.5908062E-3,-5.0590564E-2,6.0672045E-2],"split_indices":[5,6,0,5,0,0,2,1,6,0,0,0,0],"split_type":[0,0,0,0,0,0,0,0,0,0,0,0,0],"sum_hessian":[4.512407E3,3.8379924E3,6.744146E2,3.5274607E3,3.1053195E2,9.39345E2,2.5881155E3,2.32384E3,2.6427542E2,7.5720624E2,1.5666339E3,3.1025497E1,2.3324992E2],"tree_param":{"num_deleted":"0","num_feature":"12","num_nodes":"13","size_leaf_vector":"1"}},{"base_weights":[-1.9019354E-2,-2.72579E-1,7.160913E-2,-4.2181438E-1,7.155012E-2,-5.151034E-2,-2.0895413E-1,-5.181075E-2,-2.6241189E-2,-1.7980749E-2,2.570029E-2],"categories":[],"categories_nodes":[],"categories_segments":[],"categories_sizes":[],"default_left":[0,0,0,0,0,0,0,0,0,0,0],"id":21,"left_children":[1,3,-1,5,-1,-1,7,-1,9,-1,-1],"loss_changes":[1.6252819E3,9.565032E2,0E0,4.4758405E2,0E0,0E0,3.873521E2,0E0,3.784471E2,0E0,0E0],"parents":[2147483647,0,0,1,1,3,3,6,6,8,8],"right_children":[2,4,-1,6,-1,-1,8,-1,10,-1,-1],"split_conditions":[6.8E0,2.2E2,7.160913E-2,5.7E0,7.155012E-2,-5.151034E-2,1.26E2,-5.181075E-2,2.822E1,-1.7980749E-2,2.570029E-2],"split_indices":[5,6,0,5,0,0,6,0,4,0,0],"split_type":[0,0,0,0,0,0,0,0,0,0,0],"sum_hessian":[4.4148706E3,3.7589111E3,6.559595E2,3.456841E3,3.020702E2,8.9498236E2,2.5618586E3,4.626172E2,2.0992415E3,1.2983774E3,8.00864E2],"tree_param":{"num_deleted":"0","num_feature":"12","num_nodes":"11","size_leaf_vector":"1"}},{"base_weights":[-1.8701376E-2,-2.6477084E-1,7.0107386E-2,-4.0931076E-1,7.004384E-2,-5.1428866E-2,-2.0085157E-1,-4.7775108E-1,3.3415082E-1,-3.27573E-2,7.614545E-3,-5.121368E-2,2.4517626E-2],"categories":[],"categories_nodes":[],"categories_segments":[],"categories_sizes":[],"default_left":[0,0,0,0,0,0,0,0,0,0,0,0,0],"id":22,"left_children":[1,3,-1,5,-1,-1,7,9,11,-1,-1,-1,-1],"loss_changes":[1.5110873E3,8.874861E2,0E0,4.37484E2,0E0,0E0,3.761272E2,1.8705695E2,1.8428616E2,0E0,0E0,0E0,0E0],"parents":[2147483647,0,0,1,1,3,3,6,6,7,7,8,8],"right_children":[2,4,-1,6,-1,-1,8,10,12,-1,-1,-1,-1],"split_conditions":[6.8E0,2.2E2,7.0107386E-2,5.7E0,7.004384E-2,-5.1428866E-2,6.1E1,3.268E1,1.26E2,-3.27573E-2,7.614545E-3,-5.121368E-2,2.4517626E-2],"split_indices":[5,6,0,5,0,0,1,4,6,0,0,0,0],"split_type":[0,0,0,0,0,0,0,0,0,0,0,0,0],"sum_hessian":[4.3199297E3,3.6829177E3,6.370118E2,3.389538E3,2.933797E2,8.5264984E2,2.5368882E3,1.671752E3,8.651363E2,1.3044348E3,3.673171E2,8.864741E1,7.764889E2],"tree_param":{"num_deleted":"0","num_feature":"12","num_nodes":"13","size_leaf_vector":"1"}},{"base_weights":[-1.8379115E-2,-2.5714156E-1,6.873732E-2,-3.970624E-1,6.866919E-2,-5.1351316E-2,-1.9305797E-1,-5.165845E-2,-1.9872162E-2,-8.36414E-3,5.3651698E-2],"categories":[],"categories_nodes":[],"categories_segments":[],"categories_sizes":[],"default_left":[0,0,0,0,0,0,0,0,0,0,0],"id":23,"left_children":[1,3,-1,5,-1,-1,7,-1,9,-1,-1],"loss_changes":[1.4066356E3,8.241663E2,0E0,4.2718622E2,0E0,0E0,3.6565137E2,0E0,3.3604602E2,0E0,0E0],"parents":[2147483647,0,0,1,1,3,3,6,6,8,8],"right_children":[2,4,-1,6,-1,-1,8,-1,10,-1,-1],"split_conditions":[6.8E0,2.2E2,6.873732E-2,5.7E0,6.866919E-2,-5.1351316E-2,1.26E2,-5.165845E-2,1E0,-8.36414E-3,5.3651698E-2],"split_indices":[5,6,0,5,0,0,6,0,2,0,0],"split_type":[0,0,0,0,0,0,0,0,0,0,0],"sum_hessian":[4.2268174E3,3.6090854E3,6.1773193E2,3.324551E3,2.8453436E2,8.1226117E2,2.5122898E3,4.2853476E2,2.0837551E3,1.8368488E3,2.4690634E2],"tree_param":{"num_deleted":"0","num_feature":"12","num_nodes":"11","size_leaf_vector":"1"}},{"base_weights":[-1.8030047E-2,-2.4956E-1,6.7483716E-2,-3.848705E-1,6.741094E-2,-5.1277455E-2,-1.8542159E-1,-7.9020905E-1,5.0393265E-2,-4.0906694E-2,2.9335132E-2,-5.147481E-2,1.0041874E-2],"categories":[],"categories_nodes":[],"categories_segments":[],"categories_sizes":[],"default_left":[0,0,0,0,0,0,0,0,0,0,0,0,0],"id":24,"left_children":[1,3,-1,5,-1,-1,7,9,11,-1,-1,-1,-1],"loss_changes":[1.3107424E3,7.658303E2,0E0,4.1693005E2,0E0,0E0,3.552383E2,2.7346466E1,2.914742E2,0E0,0E0,0E0,0E0],"parents":[2147483647,0,0,1,1,3,3,6,6,7,7,8,8],"right_children":[2,4,-1,6,-1,-1,8,10,12,-1,-1,-1,-1],"split_conditions":[6.8E0,2.2E2,6.7483716E-2,5.7E0,6.741094E-2,-5.1277455E-2,3.9E1,1E0,1.26E2,-4.0906694E-2,2.9335132E-2,-5.147481E-2,1.0041874E-2],"split_indices":[5,6,0,5,0,0,1,2,6,0,0,0,0],"split_type":[0,0,0,0,0,0,0,0,0,0,0,0,0],"sum_hessian":[4.1371514E3,3.5388923E3,5.9825903E2,3.263294E3,2.7559827E2,7.73733E2,2.489561E3,6.977391E2,1.791822E3,6.8426746E2,1.3471613E1,2.1838808E2,1.573434E3],"tree_param":{"num_deleted":"0","num_feature":"12","num_nodes":"13","size_leaf_vector":"1"}},{"base_weights":[-1.770362E-2,-2.4221952E-1,6.63336E-2,-3.730398E-1,6.62561E-2,-5.1207084E-2,-1.7816101E-1,-5.1482808E-2,-1.7266516E-2,-5.8361134E-3,7.653805E-2],"categories":[],"categories_nodes":[],"categories_segments":[],"categories_sizes":[],"default_left":[0,0,0,0,0,0,0,0,0,0,0],"id":25,"left_children":[1,3,-1,5,-1,-1,7,-1,9,-1,-1],"loss_changes":[1.222715E3,7.1222485E2,0E0,4.0643002E2,0E0,0E0,3.38041E2,0E0,3.1986545E2,0E0,0E0],"parents":[2147483647,0,0,1,1,3,3,6,6,8,8],"right_children":[2,4,-1,6,-1,-1,8,-1,10,-1,-1],"split_conditions":[6.8E0,2.2E2,6.63336E-2,5.7E0,6.62561E-2,-5.1207084E-2,1.26E2,-5.1482808E-2,1E0,-5.8361134E-3,7.653805E-2],"split_indices":[5,6,0,5,0,0,6,0,3,0,0],"split_type":[0,0,0,0,0,0,0,0,0,0,0],"sum_hessian":[4.0488914E3,3.470178E3,5.787133E2,3.2035513E3,2.6662677E2,7.3698486E2,2.4665664E3,3.911421E2,2.0754243E3,1.9510033E3,1.2442103E2],"tree_param":{"num_deleted":"0","num_feature":"12","num_nodes":"11","size_leaf_vector":"1"}},{"base_weights":[-1.733731E-2,-2.3486145E-1,6.5275826E-2,-3.6118063E-1,6.519349E-2,-5.1139988E-2,-1.7098062E-1,-7.745962E-1,5.3003214E-2,-4.0183213E-2,2.838385E-2,-5.128478E-2,9.41998E-3],"categories":[],"categories_nodes":[],"categories_segments":[],"categories_sizes":[],"default_left":[0,0,0,0,0,0,0,0,0,0,0,0,0],"id":26,"left_children":[1,3,-1,5,-1,-1,7,9,11,-1,-1,-1,-1],"loss_changes":[1.1415074E3,6.626379E2,0E0,3.961008E2,0E0,0E0,3.3088998E2,2.62995E1,2.6100537E2,0E0,0E0,0E0,0E0],"parents":[2147483647,0,0,1,1,3,3,6,6,7,7,8,8],"right_children":[2,4,-1,6,-1,-1,8,10,12,-1,-1,-1,-1],"split_conditions":[6.8E0,2.2E2,6.5275826E-2,5.7E0,6.519349E-2,-5.1139988E-2,3.9E1,1E0,1.26E2,-4.0183213E-2,2.838385E-2,-5.128478E-2,9.41998E-3],"split_indices":[5,6,0,5,0,0,1,2,6,0,0,0,0],"split_type":[0,0,0,0,0,0,0,0,0,0,0,0,0],"sum_hessian":[3.9649097E3,3.405712E3,5.591976E2,3.1480447E3,2.5766742E2,7.019396E2,2.446105E3,6.613554E2,1.7847496E3,6.4772955E2,1.3625868E1,1.983027E2,1.5864469E3],"tree_param":{"num_deleted":"0","num_feature":"12","num_nodes":"13","size_leaf_vector":"1"}},{"base_weights":[-1.7000796E-2,-2.2776821E-1,6.430076E-2,-3.4973234E-1,6.4213485E-2,-5.1075976E-2,-1.6418937E-1,-5.132261E-2,-1.4896773E-2,-1.4737548E-2,2.6414702E-2],"categories":[],"categories_nodes":[],"categories_segments":[],"categories_sizes":[],"default_left":[0,0,0,0,0,0,0,0,0,0,0],"id":27,"left_children":[1,3,-1,5,-1,-1,7,-1,9,-1,-1],"loss_changes":[1.0667157E3,6.169978E2,0E0,3.8554968E2,0E0,0E0,3.1228177E2,0E0,3.146677E2,0E0,0E0],"parents":[2147483647,0,0,1,1,3,3,6,6,8,8],"right_children":[2,4,-1,6,-1,-1,8,-1,10,-1,-1],"split_conditions":[6.8E0,2.2E2,6.430076E-2,5.7E0,6.4213485E-2,-5.1075976E-2,1.26E2,-5.132261E-2,2.96E1,-1.4737548E-2,2.6414702E-2],"split_indices":[5,6,0,5,0,0,6,0,4,0,0],"split_type":[0,0,0,0,0,0,0,0,0,0,0],"sum_hessian":[3.8820789E3,3.3422788E3,5.398001E2,3.0935178E3,2.487609E2,6.6852246E2,2.4249954E3,3.5703104E2,2.0679644E3,1.3651108E3,7.0285345E2],"tree_param":{"num_deleted":"0","num_feature":"12","num_nodes":"11","size_leaf_vector":"1"}},{"base_weights":[-1.6652778E-2,-2.2073206E-1,6.340007E-2,-3.3837578E-1,6.33077E-2,-5.101487E-2,-1.5755813E-1,-7.5910676E-1,5.5128228E-2,-3.9458647E-2,2.6311502E-2,-5.1109154E-2,8.852635E-3],"categories":[],"categories_nodes":[],"categories_segments":[],"categories_sizes":[],"default_left":[0,0,0,0,0,0,0,0,0,0,0,0,0],"id":28,"left_children":[1,3,-1,5,-1,-1,7,9,11,-1,-1,-1,-1],"loss_changes":[9.9755316E2,5.747532E2,0E0,3.7509637E2,0E0,0E0,3.079579E2,2.4712341E1,2.338508E2,0E0,0E0,0E0,0E0],"parents":[2147483647,0,0,1,1,3,3,6,6,7,7,8,8],"right_children":[2,4,-1,6,-1,-1,8,10,12,-1,-1,-1,-1],"split_conditions":[6.8E0,2.2E2,6.340007E-2,5.7E0,6.33077E-2,-5.101487E-2,3.9E1,1E0,1.26E2,-3.9458647E-2,2.6311502E-2,-5.1109154E-2,8.852635E-3],"split_indices":[5,6,0,5,0,0,1,2,6,0,0,0,0],"split_type":[0,0,0,0,0,0,0,0,0,0,0,0,0],"sum_hessian":[3.8029E3,3.2823037E3,5.205964E2,3.0423618E3,2.399419E2,6.366619E2,2.4056997E3,6.2772186E2,1.7779779E3,6.137512E2,1.3970653E1,1.800136E2,1.5979644E3],"tree_param":{"num_deleted":"0","num_feature":"12","num_nodes":"13","size_leaf_vector":"1"}},{"base_weights":[-1.6308878E-2,-2.1388723E-1,6.256646E-2,-3.2733342E-1,6.2468853E-2,-5.0956495E-2,-1.5121676E-1,-4.1653192E-1,3.074227E-1,-2.761207E-2,2.0297846E-2,7.9149315E-3,6.497769E-2],"categories":[],"categories_nodes":[],"categories_segments":[],"categories_sizes":[],"default_left":[0,0,0,0,0,0,0,0,0,0,0,0,0],"id":29,"left_children":[1,3,-1,5,-1,-1,7,9,11,-1,-1,-1,-1],"loss_changes":[9.335994E2,5.357403E2,0E0,3.6457846E2,0E0,0E0,2.9062726E2,1.6908688E2,1.2932254E2,0E0,0E0,0E0,0E0],"parents":[2147483647,0,0,1,1,3,3,6,6,7,7,8,8],"right_children":[2,4,-1,6,-1,-1,8,10,12,-1,-1,-1,-1],"split_conditions":[6.8E0,2.2E2,6.256646E-2,5.7E0,6.2468853E-2,-5.0956495E-2,6.1E1,3.609E1,3.469E1,-2.761207E-2,2.0297846E-2,7.9149315E-3,6.497769E-2],"split_indices":[5,6,0,5,0,0,1,4,4,0,0,0,0],"split_type":[0,0,0,0,0,0,0,0,0,0,0,0,0],"sum_hessian":[3.7255027E3,3.2238533E3,5.016494E2,2.9926138E3,2.3123967E2,6.06289E2,2.3863247E3,1.5118417E3,8.74483E2,1.2980018E3,2.1383987E2,7.6122516E2,1.132578E2],"tree_param":{"num_deleted":"0","num_feature":"12","num_nodes":"13","size_leaf_vector":"1"}},{"base_weights":[-1.591841E-2,-2.0707129E-1,6.1793532E-2,-3.1636998E-1,6.169051E-2,-5.090068E-2,-1.4498365E-1,-5.115859E-2,-6.7530796E-3,-1.5408873E-2,2.1464927E-2],"categories":[],"categories_nodes":[],"categories_segments":[],"categories_sizes":[],"default_left":[0,0,0,0,0,0,0,0,0,0,0],"id":30,"left_children":[1,3,-1,5,-1,-1,7,-1,9,-1,-1],"loss_changes":[8.742487E2,4.9954926E2,0E0,3.542182E2,0E0,0E0,2.8763477E2,0E0,2.6935074E2,0E0,0E0],"parents":[2147483647,0,0,1,1,3,3,6,6,8,8],"right_children":[2,4,-1,6,-1,-1,8,-1,10,-1,-1],"split_conditions":[6.8E0,2.2E2,6.1793532E-2,5.7E0,6.169051E-2,-5.090068E-2,1.26E2,-5.115859E-2,2.822E1,-1.5408873E-2,2.1464927E-2],"split_indices":[5,6,0,5,0,0,6,0,4,0,0],"split_type":[0,0,0,0,0,0,0,0,0,0,0],"sum_hessian":[3.6515476E3,3.168535E3,4.830126E2,2.9458562E3,2.2267879E2,5.773374E2,2.3685188E3,3.2124237E2,2.0472764E3,1.2106781E3,8.365982E2],"tree_param":{"num_deleted":"0","num_feature":"12","num_nodes":"11","size_leaf_vector":"1"}},{"base_weights":[-1.5567741E-2,-2.0043293E-1,6.107567E-2,-3.0567974E-1,6.0967058E-2,-5.084728E-2,-1.3903292E-1,-7.365076E-1,5.8567412E-2,-3.840701E-2,2.5110086E-2,-5.0937206E-2,8.396895E-3],"categories":[],"categories_nodes":[],"categories_segments":[],"categories_sizes":[],"default_left":[0,0,0,0,0,0,0,0,0,0,0,0,0],"id":31,"left_children":[1,3,-1,5,-1,-1,7,9,11,-1,-1,-1,-1],"loss_changes":[8.192452E2,4.6605927E2,0E0,3.43858E2,0E0,0E0,2.7777795E2,2.3297638E1,2.0857384E2,0E0,0E0,0E0,0E0],"parents":[2147483647,0,0,1,1,3,3,6,6,7,7,8,8],"right_children":[2,4,-1,6,-1,-1,8,10,12,-1,-1,-1,-1],"split_conditions":[6.8E0,2.2E2,6.107567E-2,5.7E0,6.0967058E-2,-5.084728E-2,3.9E1,1E0,1.26E2,-3.840701E-2,2.5110086E-2,-5.0937206E-2,8.396895E-3],"split_indices":[5,6,0,5,0,0,1,2,6,0,0,0,0],"split_type":[0,0,0,0,0,0,0,0,0,0,0,0,0],"sum_hessian":[3.580218E3,3.1154883E3,4.6472992E2,2.9012085E3,2.1427979E2,5.497436E2,2.3514648E3,5.837327E2,1.767732E3,5.6956775E2,1.4165013E1,1.6215662E2,1.6055754E3],"tree_param":{"num_deleted":"0","num_feature":"12","num_nodes":"13","size_leaf_vector":"1"}},{"base_weights":[-1.5222537E-2,-1.9397621E-1,6.0407907E-2,-2.952962E-1,6.0293496E-2,-5.0796147E-2,-1.3334227E-1,-5.1025193E-2,-5.4147807E-3,-4.9291807E-3,6.491022E-2],"categories":[],"categories_nodes":[],"categories_segments":[],"categories_sizes":[],"default_left":[0,0,0,0,0,0,0,0,0,0,0],"id":32,"left_children":[1,3,-1,5,-1,-1,7,-1,9,-1,-1],"loss_changes":[7.681934E2,4.3505737E2,0E0,3.335144E2,0E0,0E0,2.6504327E2,0E0,2.4815161E2,0E0,0E0],"parents":[2147483647,0,0,1,1,3,3,6,6,8,8],"right_children":[2,4,-1,6,-1,-1,8,-1,10,-1,-1],"split_conditions":[6.8E0,2.2E2,6.0407907E-2,5.7E0,6.0293496E-2,-5.0796147E-2,1.26E2,-5.1025193E-2,1E0,-4.9291807E-3,6.491022E-2],"split_indices":[5,6,0,5,0,0,6,0,3,0,0],"split_type":[0,0,0,0,0,0,0,0,0,0,0],"sum_hessian":[3.510733E3,3.0638948E3,4.4683804E2,2.8578354E3,2.0605927E2,5.234465E2,2.3343892E3,2.9331412E2,2.041075E3,1.9057935E3,1.352815E2],"tree_param":{"num_deleted":"0","num_feature":"12","num_nodes":"11","size_leaf_vector":"1"}},{"base_weights":[-1.484626E-2,-1.8754141E-1,5.9785824E-2,-5.0747126E-2,-2.3391556E-2,-1.2774824E-1,5.9665393E-2,-7.199434E-1,5.900234E-2,-3.763373E-2,2.4354937E-2,-5.42637E-3,3.6355294E-2],"categories":[],"categories_nodes":[],"categories_segments":[],"categories_sizes":[],"default_left":[0,0,0,0,0,0,0,0,0,0,0,0,0],"id":33,"left_children":[1,3,-1,-1,5,7,-1,9,11,-1,-1,-1,-1],"loss_changes":[7.206538E2,4.096983E2,0E0,0E0,3.1990488E2,2.5664932E2,0E0,2.2347229E1,1.976222E2,0E0,0E0,0E0,0E0],"parents":[2147483647,0,0,1,1,4,4,5,5,7,7,8,8],"right_children":[2,4,-1,-1,6,8,-1,10,12,-1,-1,-1,-1],"split_conditions":[6.8E0,5.7E0,5.9785824E-2,-5.0747126E-2,2.2E2,3.9E1,5.9665393E-2,1E0,3.387E1,-3.763373E-2,2.4354937E-2,-5.42637E-3,3.6355294E-2],"split_indices":[5,5,0,0,6,1,0,2,4,0,0,0,0],"split_type":[0,0,0,0,0,0,0,0,0,0,0,0,0],"sum_hessian":[3.44507E3,3.015704E3,4.2936597E2,4.9838748E2,2.5173167E3,2.3192856E3,1.9803084E2,5.553593E2,1.7639265E3,5.410638E2,1.42955E1,1.41096E3,3.5296652E2],"tree_param":{"num_deleted":"0","num_feature":"12","num_nodes":"13","size_leaf_vector":"1"}},{"base_weights":[-1.4467302E-2,-1.8128267E-1,5.920549E-2,-5.07001E-2,-2.2521727E-2,-5.094064E-2,1.0141129E-1,-2.0381348E-1,4.7093156E-1,-1.4602845E-2,5.8581848E-2,-2.9251618E-2,2.8052246E-2],"categories":[],"categories_nodes":[],"categories_segments":[],"categories_sizes":[],"default_left":[0,0,0,0,0,0,0,0,0,0,0,0,0],"id":34,"left_children":[1,3,-1,-1,5,-1,7,9,11,-1,-1,-1,-1],"loss_changes":[6.7643463E2,3.9258914E2,0E0,0E0,3.0820004E2,0E0,2.5049417E2,1.4799718E2,9.592029E1,0E0,0E0,0E0,0E0],"parents":[2147483647,0,0,1,1,4,4,6,6,7,7,8,8],"right_children":[2,4,-1,-1,6,-1,8,10,12,-1,-1,-1,-1],"split_conditions":[6.8E0,5.7E0,5.920549E-2,-5.07001E-2,1.26E2,-5.094064E-2,2.785E1,2.2E2,3.2E1,-1.4602845E-2,5.8581848E-2,-2.9251618E-2,2.8052246E-2],"split_indices":[5,5,0,0,6,0,4,6,1,0,0,0,0],"split_type":[0,0,0,0,0,0,0,0,0,0,0,0,0],"sum_hessian":[3.381096E3,2.9687593E3,4.1233676E2,4.7451053E2,2.4942488E3,2.7514575E2,2.219103E3,1.2155248E3,1.0035783E3,1.1429832E3,7.2541565E1,7.847714E1,9.2510114E2],"tree_param":{"num_deleted":"0","num_feature":"12","num_nodes":"13","size_leaf_vector":"1"}},{"base_weights":[-1.4180656E-2,-1.7498194E-1,5.8663405E-2,-5.0654925E-2,-2.1784054E-2,-5.087585E-2,9.6422106E-2,-2.4445883E-3,5.871723E-2,-6.6873976E-3,4.2140316E-2],"categories":[],"categories_nodes":[],"categories_segments":[],"categories_sizes":[],"default_left":[0,0,0,0,0,0,0,0,0,0,0],"id":35,"left_children":[1,3,-1,-1,5,-1,7,9,-1,-1,-1],"loss_changes":[6.352148E2,3.7616724E2,0E0,0E0,2.9177658E2,0E0,2.3617E2,2.2550848E2,0E0,0E0,0E0],"parents":[2147483647,0,0,1,1,4,4,6,6,7,7],"right_children":[2,4,-1,-1,6,-1,8,10,-1,-1,-1],"split_conditions":[6.8E0,5.7E0,5.8663405E-2,-5.0654925E-2,1.26E2,-5.087585E-2,2.2E2,1E0,5.871723E-2,-6.6873976E-3,4.2140316E-2],"split_indices":[5,5,0,0,6,0,6,2,0,0,0],"split_type":[0,0,0,0,0,0,0,0,0,0,0],"sum_hessian":[3.3246448E3,2.9288765E3,3.9576837E2,4.517616E2,2.477115E3,2.620529E2,2.215062E3,2.0298799E3,1.8518217E2,1.7576794E3,2.7220047E2],"tree_param":{"num_deleted":"0","num_feature":"12","num_nodes":"11","size_leaf_vector":"1"}},{"base_weights":[-1.3817136E-2,-1.690025E-1,5.815641E-2,-5.0611492E-2,-2.0980421E-2,-5.0813425E-2,9.201257E-2,-6.937206E-1,2.2317976E-1,-3.6431026E-2,5.0059635E-2,2.996122E-3,3.9285284E-2],"categories":[],"categories_nodes":[],"categories_segments":[],"categories_sizes":[],"default_left":[0,0,0,0,0,0,0,0,0,0,0,0,0],"id":36,"left_children":[1,3,-1,-1,5,-1,7,9,11,-1,-1,-1,-1],"loss_changes":[5.9683496E2,3.6032178E2,0E0,0E0,2.763977E2,0E0,2.276472E2,1.9422394E1,1.7373636E2,0E0,0E0,0E0,0E0],"parents":[2147483647,0,0,1,1,4,4,6,6,7,7,8,8],"right_children":[2,4,-1,-1,6,-1,8,10,12,-1,-1,-1,-1],"split_conditions":[6.8E0,5.7E0,5.815641E-2,-5.0611492E-2,1.26E2,-5.0813425E-2,3.2E1,2.2E2,3.387E1,-3.6431026E-2,5.0059635E-2,2.996122E-3,3.9285284E-2],"split_indices":[5,5,0,0,6,0,1,6,4,0,0,0,0],"split_type":[0,0,0,0,0,0,0,0,0,0,0,0,0],"sum_hessian":[3.2656614E3,2.8859878E3,3.7967368E2,4.300893E2,2.4558984E3,2.4957211E2,2.2063264E3,3.150125E2,1.8913138E3,3.0921558E2,5.7969427E0,1.4667404E3,4.2457355E2],"tree_param":{"num_deleted":"0","num_feature":"12","num_nodes":"13","size_leaf_vector":"1"}},{"base_weights":[-1.3543126E-2,-1.6275153E-1,5.768167E-2,-5.0569672E-2,-2.0289488E-2,-1.1224823E-1,5.805639E-2,-3.6245602E-1,2.8034773E-1,-2.3596808E-2,2.4108676E-2,-4.989172E-2,1.7723612E-2],"categories":[],"categories_nodes":[],"categories_segments":[],"categories_sizes":[],"default_left":[0,0,0,0,0,0,0,0,0,0,0,0,0],"id":37,"left_children":[1,3,-1,-1,5,7,-1,9,11,-1,-1,-1,-1],"loss_changes":[5.6089825E2,3.4521814E2,0E0,0E0,2.6588364E2,2.2312482E2,0E0,1.2849289E2,8.4137024E1,0E0,0E0,0E0,0E0],"parents":[2147483647,0,0,1,1,4,4,5,5,7,7,8,8],"right_children":[2,4,-1,-1,6,8,-1,10,12,-1,-1,-1,-1],"split_conditions":[6.8E0,5.7E0,5.768167E-2,-5.0569672E-2,2.2E2,6.1E1,5.805639E-2,3.822E1,1.26E2,-2.3596808E-2,2.4108676E-2,-4.989172E-2,1.7723612E-2],"split_indices":[5,5,0,0,6,1,0,4,6,0,0,0,0],"split_type":[0,0,0,0,0,0,0,0,0,0,0,0,0],"sum_hessian":[3.2186516E3,2.8545898E3,3.6406177E2,4.0944418E2,2.4451458E3,2.2694055E3,1.7574017E2,1.3860989E3,8.833066E2,1.2274403E3,1.5865851E2,4.773397E1,8.355726E2],"tree_param":{"num_deleted":"0","num_feature":"12","num_nodes":"13","size_leaf_vector":"1"}},{"base_weights":[-1.3187577E-2,-1.571119E-1,5.7236638E-2,-5.052936E-2,-1.954131E-2,-5.0727725E-2,8.610128E-2,-3.1363722E-3,5.7572167E-2,-4.491143E-3,5.5633266E-2],"categories":[],"categories_nodes":[],"categories_segments":[],"categories_sizes":[],"default_left":[0,0,0,0,0,0,0,0,0,0,0],"id":38,"left_children":[1,3,-1,-1,5,-1,7,9,-1,-1,-1],"loss_changes":[5.2750574E2,3.3053085E2,0E0,0E0,2.5504561E2,0E0,2.0854787E2,1.9597472E2,0E0,0E0,0E0],"parents":[2147483647,0,0,1,1,4,4,6,6,7,7],"right_children":[2,4,-1,-1,6,-1,8,10,-1,-1,-1],"split_conditions":[6.8E0,5.7E0,5.7236638E-2,-5.052936E-2,1.26E2,-5.0727725E-2,2.2E2,1E0,5.7572167E-2,-4.491143E-3,5.5633266E-2],"split_indices":[5,5,0,0,6,0,6,3,0,0,0],"split_type":[0,0,0,0,0,0,0,0,0,0,0],"sum_hessian":[3.1632166E3,2.8142786E3,3.4893796E2,3.8977908E2,2.4244995E3,2.3188129E2,2.1926182E3,2.0240703E3,1.6854782E2,1.8790099E3,1.4506053E2],"tree_param":{"num_deleted":"0","num_feature":"12","num_nodes":"11","size_leaf_vector":"1"}},{"base_weights":[-1.28183225E-2,-1.5155166E-1,5.6819018E-2,-5.049045E-2,-1.8793244E-2,-5.0670307E-2,8.216134E-2,-6.7693144E-1,2.0188676E-1,-3.5448164E-2,4.8027378E-2,5.8152103E-3,5.7109345E-2],"categories":[],"categories_nodes":[],"categories_segments":[],"categories_sizes":[],"default_left":[0,0,0,0,0,0,0,0,0,0,0,0,0],"id":39,"left_children":[1,3,-1,-1,5,-1,7,9,11,-1,-1,-1,-1],"loss_changes":[4.9627997E2,3.1644177E2,0E0,0E0,2.4170796E2,0E0,1.98765E2,1.6310318E1,1.5184656E2,0E0,0E0,0E0,0E0],"parents":[2147483647,0,0,1,1,4,4,6,6,7,7,8,8],"right_children":[2,4,-1,-1,6,-1,8,10,12,-1,-1,-1,-1],"split_conditions":[6.8E0,5.7E0,5.6819018E-2,-5.049045E-2,1.26E2,-5.0670307E-2,3.2E1,2.2E2,2.2E2,-3.5448164E-2,4.8027378E-2,5.8152103E-3,5.7109345E-2],"split_indices":[5,5,0,0,6,0,1,6,6,0,0,0,0],"split_type":[0,0,0,0,0,0,0,0,0,0,0,0,0],"sum_hessian":[3.110717E3,2.7764116E3,3.3430533E2,3.7104855E2,2.4053633E3,2.2081705E2,2.1845461E3,2.9697668E2,1.8875695E3,2.9183493E2,5.141744E0,1.7311321E3,1.564374E2],"tree_param":{"num_deleted":"0","num_feature":"12","num_nodes":"13","size_leaf_vector":"1"}},{"base_weights":[-1.2475559E-2,-1.4618811E-1,5.64267E-2,-5.0452836E-2,-1.809959E-2,-5.0614703E-2,7.8393355E-2,-1.900139E-1,4.1076285E-1,-2.3988789E-2,7.35398E-3,1.6149713E-2,6.3438915E-2],"categories":[],"categories_nodes":[],"categories_segments":[],"categories_sizes":[],"default_left":[0,0,0,0,0,0,0,0,0,0,0,0,0],"id":40,"left_children":[1,3,-1,-1,5,-1,7,9,11,-1,-1,-1,-1],"loss_changes":[4.6711972E2,3.0286987E2,0E0,0E0,2.2909724E2,0E0,1.9428917E2,1.1777827E2,7.285835E1,0E0,0E0,0E0,0E0],"parents":[2147483647,0,0,1,1,4,4,6,6,7,7,8,8],"right_children":[2,4,-1,-1,6,-1,8,10,12,-1,-1,-1,-1],"split_conditions":[6.8E0,5.7E0,5.64267E-2,-5.0452836E-2,1.26E2,-5.0614703E-2,2.822E1,6E1,1E0,-2.3988789E-2,7.35398E-3,1.6149713E-2,6.3438915E-2],"split_indices":[5,5,0,0,6,0,4,1,3,0,0,0,0],"split_type":[0,0,0,0,0,0,0,0,0,0,0,0,0],"sum_hessian":[3.0596475E3,2.7394846E3,3.2016266E2,3.532096E2,2.3862751E3,2.1027373E2,2.1760015E3,1.2040726E3,9.719288E2,6.472663E2,5.5680634E2,8.8298267E2,8.894611E1],"tree_param":{"num_deleted":"0","num_feature":"12","num_nodes":"13","size_leaf_vector":"1"}},{"base_weights":[-1.2204203E-2,-1.405988E-1,5.605778E-2,-5.041642E-2,-1.749371E-2,-9.728216E-2,5.660373E-2,-2.129869E-1,6.395209E-1,-3.463633E-2,-3.2971953E-3,-4.745625E-2,3.584422E-2],"categories":[],"categories_nodes":[],"categories_segments":[],"categories_sizes":[],"default_left":[0,0,0,0,0,0,0,0,0,0,0,0,0],"id":41,"left_children":[1,3,-1,-1,5,7,-1,9,11,-1,-1,-1,-1],"loss_changes":[4.397413E2,2.89932E2,0E0,0E0,2.1823544E2,1.897939E2,0E0,1.35642E2,3.7820526E1,0E0,0E0,0E0,0E0],"parents":[2147483647,0,0,1,1,4,4,5,5,7,7,8,8],"right_children":[2,4,-1,-1,6,8,-1,10,12,-1,-1,-1,-1],"split_conditions":[6.8E0,5.7E0,5.605778E-2,-5.041642E-2,2.2E2,1E0,5.660373E-2,3.9E1,1.26E2,-3.463633E-2,-3.2971953E-3,-4.745625E-2,3.584422E-2],"split_indices":[5,5,0,0,6,2,0,1,6,0,0,0,0],"split_type":[0,0,0,0,0,0,0,0,0,0,0,0,0],"sum_hessian":[3.0198347E3,2.713327E3,3.065079E2,3.362207E2,2.3771062E3,2.223682E3,1.5342441E2,1.922492E3,3.0118985E2,4.501453E2,1.4723467E3,1.3462917E1,2.8772693E2],"tree_param":{"num_deleted":"0","num_feature":"12","num_nodes":"13","size_leaf_vector":"1"}},{"base_weights":[-1.1862102E-2,-1.3553493E-1,5.5710535E-2,-5.03811E-2,-1.6836861E-2,-5.0539356E-2,7.381328E-2,-3.2824487E-3,5.6206513E-2,-1.0008915E-2,1.9596737E-2],"categories":[],"categories_nodes":[],"categories_segments":[],"categories_sizes":[],"default_left":[0,0,0,0,0,0,0,0,0,0,0],"id":42,"left_children":[1,3,-1,-1,5,-1,7,9,-1,-1,-1],"loss_changes":[4.1421976E2,2.773946E2,0E0,0E0,2.127033E2,0E0,1.7519853E2,1.5700458E2,0E0,0E0,0E0],"parents":[2147483647,0,0,1,1,4,4,6,6,7,7],"right_children":[2,4,-1,-1,6,-1,8,10,-1,-1,-1],"split_conditions":[6.8E0,5.7E0,5.5710535E-2,-5.03811E-2,1.26E2,-5.0539356E-2,2.2E2,3.073E1,5.6206513E-2,-1.0008915E-2,1.9596737E-2],"split_indices":[5,5,0,0,6,0,6,4,0,0,0],"split_type":[0,0,0,0,0,0,0,0,0,0,0],"sum_hessian":[2.972252E3,2.6789153E3,2.9333667E2,3.2004224E2,2.358873E3,1.9630458E2,2.1625684E3,2.0156144E3,1.4695396E2,1.3456898E3,6.699246E2],"tree_param":{"num_deleted":"0","num_feature":"12","num_nodes":"11","size_leaf_vector":"1"}},{"base_weights":[-1.15206875E-2,-1.3059013E-1,5.538339E-2,-5.034679E-2,-1.6196461E-2,-5.0487507E-2,7.0424445E-2,-3.189422E-3,5.5832107E-2,-5.8696205E-3,3.296523E-2],"categories":[],"categories_nodes":[],"categories_segments":[],"categories_sizes":[],"default_left":[0,0,0,0,0,0,0,0,0,0,0],"id":43,"left_children":[1,3,-1,-1,5,-1,7,9,-1,-1,-1],"loss_changes":[3.903116E2,2.6536072E2,0E0,0E0,2.0167758E2,0E0,1.6602257E2,1.5252477E2,0E0,0E0,0E0],"parents":[2147483647,0,0,1,1,4,4,6,6,7,7],"right_children":[2,4,-1,-1,6,-1,8,10,-1,-1,-1],"split_conditions":[6.8E0,5.7E0,5.538339E-2,-5.034679E-2,1.26E2,-5.0487507E-2,2.2E2,1E0,5.5832107E-2,-5.8696205E-3,3.296523E-2],"split_indices":[5,5,0,0,6,0,6,2,0,0,0],"split_type":[0,0,0,0,0,0,0,0,0,0,0],"sum_hessian":[2.9268376E3,2.6461946E3,2.806429E2,3.0463647E2,2.341558E3,1.8691862E2,2.1546396E3,2.0139324E3,1.4070717E2,1.7185122E3,2.954202E2],"tree_param":{"num_deleted":"0","num_feature":"12","num_nodes":"11","size_leaf_vector":"1"}},{"base_weights":[-1.1173597E-2,-1.2575714E-1,5.507487E-2,-5.031341E-2,-1.5563747E-2,-7.164715E-1,1.0218688E-1,-7.407929E-1,4.555322E-2,-5.030812E-2,1.7109507E-1,-4.167677E-2,-2.2899715E-2,4.1592075E-3,4.7294684E-2],"categories":[],"categories_nodes":[],"categories_segments":[],"categories_sizes":[],"default_left":[0,0,0,0,0,0,0,0,0,0,0,0,0,0,0],"id":44,"left_children":[1,3,-1,-1,5,7,9,11,-1,-1,13,-1,-1,-1,-1],"loss_changes":[3.6789807E2,2.5381644E2,0E0,0E0,1.9205522E2,1.3923752E1,1.523435E2,8.28186E0,0E0,0E0,1.2774759E2,0E0,0E0,0E0,0E0],"parents":[2147483647,0,0,1,1,4,4,5,5,6,6,7,7,10,10],"right_children":[2,4,-1,-1,6,8,10,12,-1,-1,14,-1,-1,-1,-1],"split_conditions":[6.8E0,5.7E0,5.507487E-2,-5.031341E-2,3.2E1,2.2E2,1.26E2,2.6E1,4.555322E-2,-5.030812E-2,3.893E1,-4.167677E-2,-2.2899715E-2,4.1592075E-3,4.7294684E-2],"split_indices":[5,5,0,0,1,6,6,1,0,0,4,0,0,0,0],"split_type":[0,0,0,0,0,0,0,0,0,0,0,0,0,0,0],"sum_hessian":[2.8835293E3,2.6151106E3,2.6841873E2,2.8996725E2,2.3251433E3,3.3370255E2,1.9914408E3,3.2932602E2,4.3765054E0,1.157685E2,1.8756724E3,2.4653008E2,8.2795944E1,1.685534E3,1.9013829E2],"tree_param":{"num_deleted":"0","num_feature":"12","num_nodes":"15","size_leaf_vector":"1"}},{"base_weights":[-1.0921946E-2,-1.2081219E-1,5.478367E-2,-5.028085E-2,-1.5048875E-2,-5.039211E-2,6.409429E-2,-5.600522E-3,5.5409353E-2,-4.205862E-3,4.614312E-2],"categories":[],"categories_nodes":[],"categories_segments":[],"categories_sizes":[],"default_left":[0,0,0,0,0,0,0,0,0,0,0],"id":45,"left_children":[1,3,-1,-1,5,-1,7,9,-1,-1,-1],"loss_changes":[3.46844E2,2.4277756E2,0E0,0E0,1.8223537E2,0E0,1.5633029E2,1.4695819E2,0E0,0E0,0E0],"parents":[2147483647,0,0,1,1,4,4,6,6,7,7],"right_children":[2,4,-1,-1,6,-1,8,10,-1,-1,-1],"split_conditions":[6.8E0,5.7E0,5.478367E-2,-5.028085E-2,1.26E2,-5.039211E-2,2.2E2,1E0,5.5409353E-2,-4.205862E-3,4.614312E-2],"split_indices":[5,5,0,0,6,0,6,3,0,0,0],"split_type":[0,0,0,0,0,0,0,0,0,0,0],"sum_hessian":[2.8501523E3,2.5934966E3,2.5665588E2,2.7600012E2,2.3174966E3,1.7023892E2,2.1472576E3,2.0138262E3,1.3343138E2,1.8576416E3,1.5618457E2],"tree_param":{"num_deleted":"0","num_feature":"12","num_nodes":"11","size_leaf_vector":"1"}},{"base_weights":[-1.0574231E-2,-1.1625079E-1,5.4508556E-2,-5.0249048E-2,-1.44448085E-2,-7.028102E-1,9.620996E-2,-7.2601956E-1,4.439594E-2,-5.0193485E-2,1.5816459E-1,-4.1115545E-2,-2.1902768E-2,4.5573767E-3,5.506925E-2],"categories":[],"categories_nodes":[],"categories_segments":[],"categories_sizes":[],"default_left":[0,0,0,0,0,0,0,0,0,0,0,0,0,0,0],"id":46,"left_children":[1,3,-1,-1,5,7,9,11,-1,-1,13,-1,-1,-1,-1],"loss_changes":[3.2713547E2,2.3214029E2,0E0,0E0,1.7550195E2,1.2425095E1,1.3545232E2,8.375427E0,0E0,0E0,1.1874506E2,0E0,0E0,0E0,0E0],"parents":[2147483647,0,0,1,1,4,4,5,5,6,6,7,7,10,10],"right_children":[2,4,-1,-1,6,8,10,12,-1,-1,14,-1,-1,-1,-1],"split_conditions":[6.8E0,5.7E0,5.4508556E-2,-5.0249048E-2,3.2E1,2.2E2,1.26E2,2.6E1,4.439594E-2,-5.0193485E-2,2.2E2,-4.1115545E-2,-2.1902768E-2,4.5573767E-3,5.506925E-2],"split_indices":[5,5,0,0,1,6,6,1,0,0,6,0,0,0,0],"split_type":[0,0,0,0,0,0,0,0,0,0,0,0,0,0,0],"sum_hessian":[2.8102136E3,2.564869E3,2.453447E2,2.62702E2,2.302167E3,3.1808157E2,1.9840854E3,3.1404315E2,4.038421E0,1.04972275E2,1.8791132E3,2.339559E2,8.008725E1,1.7554806E3,1.2363258E2],"tree_param":{"num_deleted":"0","num_feature":"12","num_nodes":"15","size_leaf_vector":"1"}},{"base_weights":[-1.0265352E-2,-1.1187252E-1,5.4248393E-2,-5.0217908E-2,-1.3901772E-2,-5.0300997E-2,5.870237E-2,-1.8663906E-1,3.2984895E-1,-2.2688825E-2,5.3205593E-3,8.13606E-3,3.6762293E-2],"categories":[],"categories_nodes":[],"categories_segments":[],"categories_sizes":[],"default_left":[0,0,0,0,0,0,0,0,0,0,0,0,0],"id":47,"left_children":[1,3,-1,-1,5,-1,7,9,11,-1,-1,-1,-1],"loss_changes":[3.0866333E2,2.2191116E2,0E0,0E0,1.6487225E2,0E0,1.419548E2,8.775946E1,6.855258E1,0E0,0E0,0E0,0E0],"parents":[2147483647,0,0,1,1,4,4,6,6,7,7,8,8],"right_children":[2,4,-1,-1,6,-1,8,10,12,-1,-1,-1,-1],"split_conditions":[6.8E0,5.7E0,5.4248393E-2,-5.0217908E-2,1.26E2,-5.0300997E-2,2.785E1,6E1,6.6E1,-2.2688825E-2,5.3205593E-3,8.13606E-3,3.6762293E-2],"split_indices":[5,5,0,0,6,0,4,1,1,0,0,0,0],"split_type":[0,0,0,0,0,0,0,0,0,0,0,0,0],"sum_hessian":[2.771575E3,2.5371006E3,2.3447446E2,2.5004153E2,2.287059E3,1.5507944E2,2.1319795E3,1.1194131E3,1.0125664E3,5.8531024E2,5.341029E2,7.1797675E2,2.9458963E2],"tree_param":{"num_deleted":"0","num_feature":"12","num_nodes":"13","size_leaf_vector":"1"}},{"base_weights":[-1.0032102E-2,-1.0742206E-1,5.4002173E-2,-5.0187357E-2,-1.3451293E-2,-7.612998E-2,5.4718E-2,-2.9198408E-1,2.2087626E-1,-2.0904526E-2,1.5672622E-2,5.9004035E-3,3.9927855E-2],"categories":[],"categories_nodes":[],"categories_segments":[],"categories_sizes":[],"default_left":[0,0,0,0,0,0,0,0,0,0,0,0,0],"id":48,"left_children":[1,3,-1,-1,5,7,-1,9,11,-1,-1,-1,-1],"loss_changes":[2.9128983E2,2.1213124E2,0E0,0E0,1.5844618E2,1.3851027E2,0E0,9.564695E1,5.3950825E1,0E0,0E0,0E0,0E0],"parents":[2147483647,0,0,1,1,4,4,5,5,7,7,8,8],"right_children":[2,4,-1,-1,6,8,-1,10,12,-1,-1,-1,-1],"split_conditions":[6.8E0,5.7E0,5.4002173E-2,-5.0187357E-2,2.2E2,6.1E1,5.4718E-2,3.638E1,3.469E1,-2.0904526E-2,1.5672622E-2,5.9004035E-3,3.9927855E-2],"split_indices":[5,5,0,0,6,1,0,4,4,0,0,0,0],"split_type":[0,0,0,0,0,0,0,0,0,0,0,0,0],"sum_hessian":[2.7417205E3,2.5176858E3,2.2403462E2,2.3798857E2,2.2796973E3,2.158503E3,1.2119433E2,1.2500359E3,9.08467E2,1.0348055E3,2.1523035E2,7.7217017E2,1.3629681E2],"tree_param":{"num_deleted":"0","num_feature":"12","num_nodes":"13","size_leaf_vector":"1"}},{"base_weights":[-9.6816495E-3,-1.03287734E-1,5.376891E-2,-5.0157316E-2,-1.2884069E-2,-5.0246306E-2,5.5927675E-2,-4.33471E-3,5.4424692E-2,-5.4434533E-3,2.8537938E-2],"categories":[],"categories_nodes":[],"categories_segments":[],"categories_sizes":[],"default_left":[0,0,0,0,0,0,0,0,0,0,0],"id":49,"left_children":[1,3,-1,-1,5,-1,7,9,-1,-1,-1],"loss_changes":[2.7498517E2,2.0273586E2,0E0,0E0,1.547272E2,0E0,1.3190604E2,1.2052806E2,0E0,0E0,0E0],"parents":[2147483647,0,0,1,1,4,4,6,6,7,7],"right_children":[2,4,-1,-1,6,-1,8,10,-1,-1,-1],"split_conditions":[6.8E0,5.7E0,5.376891E-2,-5.0157316E-2,1.26E2,-5.0246306E-2,2.2E2,1E0,5.4424692E-2,-5.4434533E-3,2.8537938E-2],"split_indices":[5,5,0,0,6,0,6,2,0,0,0],"split_type":[0,0,0,0,0,0,0,0,0,0,0],"sum_hessian":[2.7053005E3,2.4912866E3,2.1401384E2,2.2651447E2,2.2647722E3,1.4602089E2,2.1187512E3,2.0028568E3,1.1589446E2,1.6954811E3,3.0737576E2],"tree_param":{"num_deleted":"0","num_feature":"12","num_nodes":"11","size_leaf_vector":"1"}},{"base_weights":[-9.362308E-3,-9.9278346E-2,5.354772E-2,-5.0127704E-2,-1.2364369E-2,-7.566999E-1,7.669211E-2,-7.741983E-1,3.7865136E-2,-5.006675E-2,1.322727E-1,-4.494944E-2,-3.3896755E-2,3.7275671E-3,5.413611E-2],"categories":[],"categories_nodes":[],"categories_segments":[],"categories_sizes":[],"default_left":[0,0,0,0,0,0,0,0,0,0,0,0,0,0,0],"id":50,"left_children":[1,3,-1,-1,5,7,9,11,-1,-1,13,-1,-1,-1,-1],"loss_changes":[2.5967017E2,1.9372162E2,0E0,0E0,1.4934688E2,6.9645386E0,1.207086E2,2.2555542E0,0E0,0E0,1.04956085E2,0E0,0E0,0E0,0E0],"parents":[2147483647,0,0,1,1,4,4,5,5,6,6,7,7,10,10],"right_children":[2,4,-1,-1,6,8,10,12,-1,-1,14,-1,-1,-1,-1],"split_conditions":[6.8E0,5.7E0,5.354772E-2,-5.0127704E-2,2.8E1,2.2E2,1.26E2,1.4E1,3.7865136E-2,-5.006675E-2,2.2E2,-4.494944E-2,-3.3896755E-2,3.7275671E-3,5.413611E-2],"split_indices":[5,5,0,0,1,6,6,1,0,0,6,0,0,0,0],"split_type":[0,0,0,0,0,0,0,0,0,0,0,0,0,0,0],"sum_hessian":[2.6711199E3,2.46672E3,2.0439992E2,2.1559183E2,2.2511282E3,2.39755E2,2.0113732E3,2.374987E2,2.2562995E0,9.7783005E1,1.9135901E3,9.979326E1,1.3770544E2,1.805047E3,1.0854315E2],"tree_param":{"num_deleted":"0","num_feature":"12","num_nodes":"15","size_leaf_vector":"1"}},{"base_weights":[-9.08388E-3,-9.542895E-2,5.3337794E-2,-5.0098456E-2,-1.1903625E-2,-5.015816E-2,5.1080853E-2,-2.197116E-2,8.2849777E-1,-3.8145147E-3,5.3814232E-2,5.021224E-2,1.4837125E-2],"categories":[],"categories_nodes":[],"categories_segments":[],"categories_sizes":[],"default_left":[0,0,0,0,0,0,0,0,0,0,0,0,0],"id":51,"left_children":[1,3,-1,-1,5,-1,7,9,11,-1,-1,-1,-1],"loss_changes":[2.4528912E2,1.8506555E2,0E0,0E0,1.3984535E2,0E0,1.196362E2,1.1499848E2,1.6612099E1,0E0,0E0,0E0,0E0],"parents":[2147483647,0,0,1,1,4,4,6,6,7,7,8,8],"right_children":[2,4,-1,-1,6,-1,8,10,12,-1,-1,-1,-1],"split_conditions":[6.8E0,5.7E0,5.3337794E-2,-5.0098456E-2,1.26E2,-5.015816E-2,1E0,2.2E2,8E1,-3.8145147E-3,5.3814232E-2,5.021224E-2,1.4837125E-2],"split_indices":[5,5,0,0,6,0,3,6,1,0,0,0,0],"split_type":[0,0,0,0,0,0,0,0,0,0,0,0,0],"sum_hessian":[2.6384468E3,2.4432656E3,1.9518105E2,2.0519463E2,2.238071E3,1.3281891E2,2.105252E3,1.9253073E3,1.799448E2,1.8354572E3,8.9850174E1,1.345778E2,4.5366985E1],"tree_param":{"num_deleted":"0","num_feature":"12","num_nodes":"13","size_leaf_vector":"1"}},{"base_weights":[-8.76813E-3,-9.164192E-2,5.3138345E-2,-5.006949E-2,-1.1408385E-2,-7.443364E-1,7.27194E-2,-7.6115483E-1,3.6686268E-2,-4.9960095E-2,1.2299803E-1,-4.4572383E-2,-3.3090655E-2,2.8564865E-3,4.633671E-2],"categories":[],"categories_nodes":[],"categories_segments":[],"categories_sizes":[],"default_left":[0,0,0,0,0,0,0,0,0,0,0,0,0,0,0],"id":52,"left_children":[1,3,-1,-1,5,7,9,11,-1,-1,13,-1,-1,-1,-1],"loss_changes":[2.3174287E2,1.7679134E2,0E0,0E0,1.3736478E2,6.2606125E0,1.0783322E2,2.3519897E0,0E0,0E0,1.0105755E2,0E0,0E0,0E0,0E0],"parents":[2147483647,0,0,1,1,4,4,5,5,6,6,7,7,10,10],"right_children":[2,4,-1,-1,6,8,10,12,-1,-1,14,-1,-1,-1,-1],"split_conditions":[6.8E0,5.7E0,5.3138345E-2,-5.006949E-2,2.8E1,2.2E2,1.26E2,1.4E1,3.6686268E-2,-4.9960095E-2,4.091E1,-4.4572383E-2,-3.3090655E-2,2.8564865E-3,4.633671E-2],"split_indices":[5,5,0,0,1,6,6,1,0,0,4,0,0,0,0],"split_type":[0,0,0,0,0,0,0,0,0,0,0,0,0,0,0],"sum_hessian":[2.6075566E3,2.421212E3,1.8634491E2,1.9529784E2,2.225914E3,2.283822E2,1.9975317E3,2.2629233E2,2.0898786E0,8.865107E1,1.9088807E3,9.444643E1,1.318459E2,1.7652822E3,1.4359845E2],"tree_param":{"num_deleted":"0","num_feature":"12","num_nodes":"15","size_leaf_vector":"1"}},{"base_weights":[-8.560119E-3,-8.787517E-2,5.2948665E-2,-5.0040733E-2,-1.1041154E-2,-7.340633E-1,6.888663E-2,-7.508459E-1,3.6213394E-2,1.6308753E-2,5.3596586E-2,-4.4260964E-2,-3.247749E-2,-4.990697E-2,3.1977103E-3],"categories":[],"categories_nodes":[],"categories_segments":[],"categories_sizes":[],"default_left":[0,0,0,0,0,0,0,0,0,0,0,0,0,0,0],"id":53,"left_children":[1,3,-1,-1,5,7,9,11,-1,13,-1,-1,-1,-1,-1],"loss_changes":[2.1900064E2,1.6886237E2,0E0,0E0,1.2843697E2,5.958359E0,1.05531654E2,2.4087296E0,0E0,9.202954E1,0E0,0E0,0E0,0E0,0E0],"parents":[2147483647,0,0,1,1,4,4,5,5,6,6,7,7,9,9],"right_children":[2,4,-1,-1,6,8,10,12,-1,14,-1,-1,-1,-1,-1],"split_conditions":[6.8E0,5.7E0,5.2948665E-2,-5.0040733E-2,2.8E1,2.2E2,2.2E2,1.4E1,3.6213394E-2,1.26E2,5.3596586E-2,-4.4260964E-2,-3.247749E-2,-4.990697E-2,3.1977103E-3],"split_indices":[5,5,0,0,1,6,6,1,0,6,0,0,0,0,0],"split_type":[0,0,0,0,0,0,0,0,0,0,0,0,0,0,0],"sum_hessian":[2.5843757E3,2.4064968E3,1.77879E2,1.858777E2,2.2206191E3,2.202317E2,2.0003875E3,2.182057E2,2.025993E0,1.9017189E3,9.866853E1,9.046342E1,1.27742294E2,8.441607E1,1.8173029E3],"tree_param":{"num_deleted":"0","num_feature":"12","num_nodes":"15","size_leaf_vector":"1"}},{"base_weights":[-8.293549E-3,-8.439544E-2,5.2768093E-2,-5.0012123E-2,-1.0622388E-2,-5.0031252E-2,4.444484E-2,-1.4457403E-1,3.200504E-1,-1.7041989E-2,9.5508685E-3,1.073809E-2,3.9591916E-2],"categories":[],"categories_nodes":[],"categories_segments":[],"categories_sizes":[],"default_left":[0,0,0,0,0,0,0,0,0,0,0,0,0],"id":54,"left_children":[1,3,-1,-1,5,-1,7,9,11,-1,-1,-1,-1],"loss_changes":[2.0702713E2,1.6124756E2,0E0,0E0,1.2051581E2,0E0,1.0914933E2,8.1935295E1,4.216828E1,0E0,0E0,0E0,0E0],"parents":[2147483647,0,0,1,1,4,4,6,6,7,7,8,8],"right_children":[2,4,-1,-1,6,-1,8,10,12,-1,-1,-1,-1],"split_conditions":[6.8E0,5.7E0,5.2768093E-2,-5.0012123E-2,1.26E2,-5.0031252E-2,2.96E1,6.6E1,4.091E1,-1.7041989E-2,9.5508685E-3,1.073809E-2,3.9591916E-2],"split_indices":[5,5,0,0,6,0,4,1,4,0,0,0,0],"split_type":[0,0,0,0,0,0,0,0,0,0,0,0,0],"sum_hessian":[2.5554893E3,2.3857178E3,1.6977148E2,1.7691151E2,2.2088064E3,1.15482506E2,2.0933237E3,1.2419982E3,8.513256E2,7.8366656E2,4.583316E2,6.971895E2,1.5413611E2],"tree_param":{"num_deleted":"0","num_feature":"12","num_nodes":"13","size_leaf_vector":"1"}},{"base_weights":[-8.085329E-3,-8.090576E-2,5.2596014E-2,-4.9983587E-2,-1.0273083E-2,-5.9642144E-2,5.334444E-2,-1.5576321E-1,4.6708614E-1,-1.0919711E-2,3.39135E-2,1.3817342E-2,4.158757E-2],"categories":[],"categories_nodes":[],"categories_segments":[],"categories_sizes":[],"default_left":[0,0,0,0,0,0,0,0,0,0,0,0,0],"id":55,"left_children":[1,3,-1,-1,5,7,-1,9,11,-1,-1,-1,-1],"loss_changes":[1.9574191E2,1.5396785E2,0E0,0E0,1.1728776E2,1.06835396E2,0E0,9.333893E1,2.2422737E1,0E0,0E0,0E0,0E0],"parents":[2147483647,0,0,1,1,4,4,5,5,7,7,8,8],"right_children":[2,4,-1,-1,6,8,-1,10,12,-1,-1,-1,-1],"split_conditions":[6.8E0,5.7E0,5.2596014E-2,-4.9983587E-2,2.2E2,1E0,5.334444E-2,1E0,1.59E2,-1.0919711E-2,3.39135E-2,1.3817342E-2,4.158757E-2],"split_indices":[5,5,0,0,6,2,0,3,6,0,0,0,0],"split_type":[0,0,0,0,0,0,0,0,0,0,0,0,0],"sum_hessian":[2.5337407E3,2.371731E3,1.6200986E2,1.683777E2,2.2033533E3,2.1076968E3,9.565646E1,1.7830226E3,3.2467416E2,1.6591671E3,1.2385557E2,2.1432735E2,1.103468E2],"tree_param":{"num_deleted":"0","num_feature":"12","num_nodes":"13","size_leaf_vector":"1"}},{"base_weights":[-7.7476013E-3,-7.758525E-2,5.243183E-2,-4.9955044E-2,-9.789376E-3,-7.161248E-1,6.4108565E-2,-7.326152E-1,3.520291E-2,1.6469393E-2,5.31043E-2,-4.3706443E-2,-3.1398065E-2,-4.9792692E-2,2.9634663E-3],"categories":[],"categories_nodes":[],"categories_segments":[],"categories_sizes":[],"default_left":[0,0,0,0,0,0,0,0,0,0,0,0,0,0,0],"id":56,"left_children":[1,3,-1,-1,5,7,9,11,-1,13,-1,-1,-1,-1,-1],"loss_changes":[1.850989E2,1.470105E2,0E0,0E0,1.1451395E2,5.382065E0,9.441317E1,2.500351E0,0E0,8.223999E1,0E0,0E0,0E0,0E0,0E0],"parents":[2147483647,0,0,1,1,4,4,5,5,6,6,7,7,9,9],"right_children":[2,4,-1,-1,6,8,10,12,-1,14,-1,-1,-1,-1,-1],"split_conditions":[6.8E0,5.7E0,5.243183E-2,-4.9955044E-2,2.8E1,2.2E2,2.2E2,1.4E1,3.520291E-2,1.26E2,5.31043E-2,-4.3706443E-2,-3.1398065E-2,-4.9792692E-2,2.9634663E-3],"split_indices":[5,5,0,0,1,6,6,1,0,6,0,0,0,0,0],"split_type":[0,0,0,0,0,0,0,0,0,0,0,0,0,0,0],"sum_hessian":[2.506849E3,2.352267E3,1.5458203E2,1.602556E2,2.1920115E3,2.0678801E2,1.9852235E3,2.0489305E2,1.8949677E0,1.8957452E3,8.947826E1,8.398095E1,1.209121E2,7.59956E1,1.8197498E3],"tree_param":{"num_deleted":"0","num_feature":"12","num_nodes":"15","size_leaf_vector":"1"}},{"base_weights":[-7.5004855E-3,-7.446012E-2,5.227501E-2,-4.9926437E-2,-9.416892E-3,-4.993985E-2,4.0702667E-2,-1.6905287E-1,2.603809E-1,-2.0126138E-2,3.0696436E-3,6.886875E-3,3.3609845E-2],"categories":[],"categories_nodes":[],"categories_segments":[],"categories_sizes":[],"default_left":[0,0,0,0,0,0,0,0,0,0,0,0,0],"id":57,"left_children":[1,3,-1,-1,5,-1,7,9,11,-1,-1,-1,-1],"loss_changes":[1.751E2,1.4032278E2,0E0,0E0,1.0825408E2,0E0,9.579669E1,5.725007E1,5.1191612E1,0E0,0E0,0E0,0E0],"parents":[2147483647,0,0,1,1,4,4,6,6,7,7,8,8],"right_children":[2,4,-1,-1,6,-1,8,10,12,-1,-1,-1,-1],"split_conditions":[6.8E0,5.7E0,5.227501E-2,-4.9926437E-2,1.26E2,-4.993985E-2,2.785E1,6E1,6.9E1,-2.0126138E-2,3.0696436E-3,6.886875E-3,3.3609845E-2],"split_indices":[5,5,0,0,6,0,4,1,1,0,0,0,0],"split_type":[0,0,0,0,0,0,0,0,0,0,0,0,0],"sum_hessian":[2.4812832E3,2.3338071E3,1.4747603E2,1.525256E2,2.1812815E3,1.0425804E2,2.0770234E3,1.062626E3,1.0143975E3,5.274786E2,5.351474E2,7.8265E2,2.3174748E2],"tree_param":{"num_deleted":"0","num_feature":"12","num_nodes":"13","size_leaf_vector":"1"}},{"base_weights":[-7.3159006E-3,-7.2221056E-2,5.2734513E-2,-4.989769E-2,-1.0023985E-2,-4.989579E-2,3.7657153E-2,-6.359908E-3,5.189609E-2,-3.5196382E-3,3.2898657E-2],"categories":[],"categories_nodes":[],"categories_segments":[],"categories_sizes":[],"default_left":[0,0,0,0,0,0,0,0,0,0,0],"id":58,"left_children":[1,3,-1,-1,5,-1,7,9,-1,-1,-1],"loss_changes":[1.6983607E2,1.3367937E2,0E0,0E0,1.02569336E2,0E0,9.147447E1,8.473696E1,0E0,0E0,0E0],"parents":[2147483647,0,0,1,1,4,4,6,6,7,7],"right_children":[2,4,-1,-1,6,-1,8,10,-1,-1,-1],"split_conditions":[2.2E2,5.7E0,5.2734513E-2,-4.989769E-2,1.26E2,-4.989579E-2,6.8E0,1E0,5.189609E-2,-3.5196382E-3,3.2898657E-2],"split_indices":[6,5,0,0,6,0,5,3,0,0,0],"split_type":[0,0,0,0,0,0,0,0,0,0,0],"sum_hessian":[2.4617986E3,2.3208882E3,1.409105E2,1.4516891E2,2.1757192E3,9.925958E1,2.0764597E3,1.9898876E3,8.657218E1,1.8157659E3,1.7412161E2],"tree_param":{"num_deleted":"0","num_feature":"12","num_nodes":"11","size_leaf_vector":"1"}},{"base_weights":[-7.039143E-3,-6.924377E-2,5.2558698E-2,-4.986873E-2,-9.590945E-3,-6.932895E-1,5.808066E-2,-7.1276504E-1,3.57957E-2,1.602038E-2,5.172623E-2,-4.310636E-2,-3.0221388E-2,-2.943577E-3,2.8094938E-2],"categories":[],"categories_nodes":[],"categories_segments":[],"categories_sizes":[],"default_left":[0,0,0,0,0,0,0,0,0,0,0,0,0,0,0],"id":59,"left_children":[1,3,-1,-1,5,7,9,11,-1,13,-1,-1,-1,-1,-1],"loss_changes":[1.6062839E2,1.2758723E2,0E0,0E0,1.0027553E2,5.86747E0,8.0983E1,2.602539E0,0E0,7.7374466E1,0E0,0E0,0E0,0E0,0E0],"parents":[2147483647,0,0,1,1,4,4,5,5,6,6,7,7,9,9],"right_children":[2,4,-1,-1,6,8,10,12,-1,14,-1,-1,-1,-1,-1],"split_conditions":[2.2E2,5.7E0,5.2558698E-2,-4.986873E-2,2.8E1,6.8E0,6.8E0,1.4E1,3.57957E-2,3.822E1,5.172623E-2,-4.310636E-2,-3.0221388E-2,-2.943577E-3,2.8094938E-2],"split_indices":[6,5,0,0,1,5,5,1,0,4,0,0,0,0,0],"split_type":[0,0,0,0,0,0,0,0,0,0,0,0,0,0,0],"sum_hessian":[2.4380999E3,2.3036213E3,1.3447852E2,1.381677E2,2.1654536E3,1.9419736E2,1.9712563E3,1.9203755E2,2.1597965E0,1.8908256E3,8.0430824E1,7.780788E1,1.14229675E2,1.6634941E3,2.2733134E2],"tree_param":{"num_deleted":"0","num_feature":"12","num_nodes":"15","size_leaf_vector":"1"}},{"base_weights":[-6.7694015E-3,-6.6372745E-2,5.239066E-2,-4.995575E-2,-7.954562E-3,-6.84689E-1,5.7611167E-2,-7.039038E-1,3.5367735E-2,-5.459754E-2,4.1008398E-1,-4.2858765E-2,-2.964413E-2,-1.1460166E-2,1.0159231E-2,1.5888777E-2,5.0659645E-2],"categories":[],"categories_nodes":[],"categories_segments":[],"categories_sizes":[],"default_left":[0,0,0,0,0,0,0,0,0,0,0,0,0,0,0,0,0],"id":60,"left_children":[1,3,-1,-1,5,7,9,11,-1,13,15,-1,-1,-1,-1,-1,-1],"loss_changes":[1.519542E2,1.2466547E2,0E0,0E0,9.562236E1,5.589432E0,7.773294E1,2.695343E0,0E0,6.7168816E1,2.6098694E1,0E0,0E0,0E0,0E0,0E0,0E0],"parents":[2147483647,0,0,1,1,4,4,5,5,6,6,7,7,9,9,10,10],"right_children":[2,4,-1,-1,6,8,10,12,-1,14,16,-1,-1,-1,-1,-1,-1],"split_conditions":[2.2E2,1.26E2,5.239066E-2,-4.995575E-2,2.8E1,6.8E0,3.387E1,1.4E1,3.5367735E-2,6.6E1,4.611E1,-4.2858765E-2,-2.964413E-2,-1.1460166E-2,1.0159231E-2,1.5888777E-2,5.0659645E-2],"split_indices":[6,6,0,0,1,5,4,1,0,1,4,0,0,0,0,0,0],"split_type":[0,0,0,0,0,0,0,0,0,0,0,0,0,0,0,0,0],"sum_hessian":[2.4153657E3,2.2870427E3,1.2832297E2,1.3384732E2,2.1531953E3,1.8935292E2,1.9638425E3,1.8726242E2,2.0905018E0,1.4902657E3,4.7357672E2,7.583996E1,1.1142247E2,8.885366E2,6.017292E2,4.120392E2,6.153753E1],"tree_param":{"num_deleted":"0","num_feature":"12","num_nodes":"17","size_leaf_vector":"1"}},{"base_weights":[-6.570917E-3,-6.439045E-2,5.1782764E-2,-4.982519E-2,-8.160786E-3,-4.9798954E-2,3.508268E-2,-4.0001124E-3,5.2290052E-2,-4.6150377E-3,2.2178823E-2],"categories":[],"categories_nodes":[],"categories_segments":[],"categories_sizes":[],"default_left":[0,0,0,0,0,0,0,0,0,0,0],"id":61,"left_children":[1,3,-1,-1,5,-1,7,9,-1,-1,-1],"loss_changes":[1.4464821E2,1.1918234E2,0E0,0E0,9.169287E1,0E0,8.124694E1,7.833732E1,0E0,0E0,0E0],"parents":[2147483647,0,0,1,1,4,4,6,6,7,7],"right_children":[2,4,-1,-1,6,-1,8,10,-1,-1,-1],"split_conditions":[6.8E0,5.7E0,5.1782764E-2,-4.982519E-2,1.26E2,-4.9798954E-2,2.2E2,1E0,5.2290052E-2,-4.6150377E-3,2.2178823E-2],"split_indices":[5,5,0,0,6,0,6,2,0,0,0],"split_type":[0,0,0,0,0,0,0,0,0,0,0],"sum_hessian":[2.3982542E3,2.2730884E3,1.251658E2,1.2837114E2,2.1447173E3,8.902694E1,2.0556904E3,1.9801185E3,7.557183E1,1.654502E3,3.256165E2],"tree_param":{"num_deleted":"0","num_feature":"12","num_nodes":"11","size_leaf_vector":"1"}},{"base_weights":[-6.324215E-3,-6.1704706E-2,5.1652875E-2,-4.9795408E-2,-7.814364E-3,-4.975394E-2,3.3455268E-2,-3.8263774E-3,5.2107763E-2,-9.326231E-3,9.866594E-3],"categories":[],"categories_nodes":[],"categories_segments":[],"categories_sizes":[],"default_left":[0,0,0,0,0,0,0,0,0,0,0],"id":62,"left_children":[1,3,-1,-1,5,-1,7,9,-1,-1,-1],"loss_changes":[1.3694948E2,1.1370663E2,0E0,0E0,8.708461E1,0E0,7.716324E1,7.279128E1,0E0,0E0,0E0],"parents":[2147483647,0,0,1,1,4,4,6,6,7,7],"right_children":[2,4,-1,-1,6,-1,8,10,-1,-1,-1],"split_conditions":[6.8E0,5.7E0,5.1652875E-2,-4.9795408E-2,1.26E2,-4.975394E-2,2.2E2,2.822E1,5.2107763E-2,-9.326231E-3,9.866594E-3],"split_indices":[5,5,0,0,6,0,6,4,0,0,0],"split_type":[0,0,0,0,0,0,0,0,0,0,0],"sum_hessian":[2.3770793E3,2.2577234E3,1.1935573E2,1.22182205E2,2.1355413E3,8.476063E1,2.0507808E3,1.978646E3,7.213473E1,1.0369386E3,9.417074E2],"tree_param":{"num_deleted":"0","num_feature":"12","num_nodes":"11","size_leaf_vector":"1"}},{"base_weights":[-6.095054E-3,-5.9130874E-2,5.1527876E-2,-4.976517E-2,-7.4929935E-3,-6.678865E-1,5.2638244E-2,-6.8235743E-1,3.151971E-2,1.6836254E-2,5.1912405E-2,-4.322929E-2,-2.9074311E-2,-2.1552143E-3,2.8952792E-2],"categories":[],"categories_nodes":[],"categories_segments":[],"categories_sizes":[],"default_left":[0,0,0,0,0,0,0,0,0,0,0,0,0,0,0],"id":63,"left_children":[1,3,-1,-1,5,7,9,11,-1,13,-1,-1,-1,-1,-1],"loss_changes":[1.2968718E2,1.08467285E2,0E0,0E0,8.452322E1,3.767395E0,6.882632E1,2.73526E0,0E0,6.3502174E1,0E0,0E0,0E0,0E0,0E0],"parents":[2147483647,0,0,1,1,4,4,5,5,6,6,7,7,9,9],"right_children":[2,4,-1,-1,6,8,10,12,-1,14,-1,-1,-1,-1,-1],"split_conditions":[6.8E0,5.7E0,5.1527876E-2,-4.976517E-2,2.8E1,2.2E2,2.2E2,1.2E1,3.151971E-2,1E0,5.1912405E-2,-4.322929E-2,-2.9074311E-2,-2.1552143E-3,2.8952792E-2],"split_indices":[5,5,0,0,1,6,6,1,0,3,0,0,0,0,0],"split_type":[0,0,0,0,0,0,0,0,0,0,0,0,0,0,0],"sum_hessian":[2.35671E3,2.2429045E3,1.138055E2,1.1629274E2,2.1266118E3,1.7663243E2,1.9499794E3,1.7515454E2,1.4778955E0,1.8826111E3,6.7368225E1,5.9711624E1,1.1544292E2,1.7020698E3,1.805413E2],"tree_param":{"num_deleted":"0","num_feature":"12","num_nodes":"15","size_leaf_vector":"1"}},{"base_weights":[-5.8511496E-3,-5.6627512E-2,5.1407404E-2,-4.983853E-2,-5.994577E-3,-6.5872395E-1,5.2178543E-2,-6.73053E-1,3.1108284E-2,1.8028464E-2,5.1742494E-2,-4.1907586E-2,-2.785186E-2,-1.8054759E-3,3.196228E-2],"categories":[],"categories_nodes":[],"categories_segments":[],"categories_sizes":[],"default_left":[0,0,0,0,0,0,0,0,0,0,0,0,0,0,0],"id":64,"left_children":[1,3,-1,-1,5,7,9,11,-1,13,-1,-1,-1,-1,-1],"loss_changes":[1.2282647E2,1.0613824E2,0E0,0E0,8.0414665E1,3.5994492E0,6.5237915E1,2.8249283E0,0E0,6.325967E1,0E0,0E0,0E0,0E0,0E0],"parents":[2147483647,0,0,1,1,4,4,5,5,6,6,7,7,9,9],"right_children":[2,4,-1,-1,6,8,10,12,-1,14,-1,-1,-1,-1,-1],"split_conditions":[6.8E0,1.26E2,5.1407404E-2,-4.983853E-2,2.8E1,2.2E2,2.2E2,1.4E1,3.1108284E-2,4.091E1,5.1742494E-2,-4.1907586E-2,-2.785186E-2,-1.8054759E-3,3.196228E-2],"split_indices":[5,6,0,0,1,6,6,1,0,4,0,0,0,0,0],"split_type":[0,0,0,0,0,0,0,0,0,0,0,0,0,0,0],"sum_hessian":[2.3373218E3,2.228817E3,1.08504776E2,1.1294723E2,2.1158696E3,1.7229675E2,1.943573E3,1.7085991E2,1.4368382E0,1.879282E3,6.4291E1,6.794501E1,1.0291491E2,1.7295009E3,1.497811E2],"tree_param":{"num_deleted":"0","num_feature":"12","num_nodes":"15","size_leaf_vector":"1"}},{"base_weights":[-5.6145783E-3,-5.4213952E-2,5.1291086E-2,-4.972064E-2,-5.4647983E-3,-4.9652804E-2,3.1966988E-2,-5.0619245E-2,4.3439364E-1,-1.06706545E-2,8.878893E-3,1.2387838E-2,3.683269E-2],"categories":[],"categories_nodes":[],"categories_segments":[],"categories_sizes":[],"default_left":[0,0,0,0,0,0,0,0,0,0,0,0,0],"id":65,"left_children":[1,3,-1,-1,5,-1,7,9,11,-1,-1,-1,-1],"loss_changes":[1.1634831E2,1.0158588E2,0E0,0E0,7.796827E1,0E0,6.7563126E1,6.271172E1,1.934459E1,0E0,0E0,0E0,0E0],"parents":[2147483647,0,0,1,1,4,4,6,6,7,7,8,8],"right_children":[2,4,-1,-1,6,-1,8,10,12,-1,-1,-1,-1],"split_conditions":[6.8E0,5.7E0,5.1291086E-2,-4.972064E-2,1.26E2,-4.9652804E-2,1E0,2.918E1,1.59E2,-1.06706545E-2,8.878893E-3,1.2387838E-2,3.683269E-2],"split_indices":[5,5,0,0,6,0,2,4,6,0,0,0,0],"split_type":[0,0,0,0,0,0,0,0,0,0,0,0,0],"sum_hessian":[2.3189539E3,2.2155105E3,1.0344333E2,1.0825504E2,2.1072556E3,7.602045E1,2.0312351E3,1.6860891E3,3.4514597E2,9.8410315E2,7.0198596E2,2.1451122E2,1.3063475E2],"tree_param":{"num_deleted":"0","num_feature":"12","num_nodes":"13","size_leaf_vector":"1"}},{"base_weights":[-5.457575E-3,-5.2568186E-2,5.1605005E-2,-4.9688973E-2,-5.991164E-3,-2.1537322E-1,1.6567363E-1,-3.0409914E-1,3.3714372E-1,8.2147144E-2,5.486861E-1,-1.6659841E-2,4.892944E-2,-3.8073026E-2,2.0098789E-2,2.56923E-3,5.0049372E-2,1.9028896E-2,4.2016774E-2],"categories":[],"categories_nodes":[],"categories_segments":[],"categories_sizes":[],"default_left":[0,0,0,0,0,0,0,0,0,0,0,0,0,0,0,0,0,0,0],"id":66,"left_children":[1,3,-1,-1,5,7,9,11,13,15,17,-1,-1,-1,-1,-1,-1,-1,-1],"loss_changes":[1.12759995E2,9.672747E1,0E0,0E0,7.564397E1,4.6580467E1,3.695131E1,3.0835396E1,9.683366E0,2.6817287E1,9.822536E0,0E0,0E0,0E0,0E0,0E0,0E0,0E0,0E0],"parents":[2147483647,0,0,1,1,4,4,5,5,6,6,7,7,8,8,9,9,10,10],"right_children":[2,4,-1,-1,6,8,10,12,14,16,18,-1,-1,-1,-1,-1,-1,-1,-1],"split_conditions":[2.2E2,5.7E0,5.1605005E-2,-4.9688973E-2,5.7E1,3.935E1,3.469E1,6.8E0,2.6E1,6.8E0,1.59E2,-1.6659841E-2,4.892944E-2,-3.8073026E-2,2.0098789E-2,2.56923E-3,5.0049372E-2,1.9028896E-2,4.2016774E-2],"split_indices":[6,5,0,0,1,4,4,5,1,5,6,0,0,0,0,0,0,0,0],"split_type":[0,0,0,0,0,0,0,0,0,0,0,0,0,0,0,0,0,0,0],"sum_hessian":[2.3047651E3,2.20557E3,9.919522E1,1.0303998E2,2.10253E3,9.4709265E2,1.1554374E3,8.1643506E2,1.306576E2,9.495715E2,2.0586589E2,7.9904895E2,1.7386131E1,6.682075E0,1.23975525E2,9.1983167E2,2.9739809E1,1.3205414E2,7.381176E1],"tree_param":{"num_deleted":"0","num_feature":"12","num_nodes":"19","size_leaf_vector":"1"}},{"base_weights":[-5.2158455E-3,-5.030611E-2,5.147446E-2,-4.975448E-2,-4.5865043E-3,-4.945538E-2,2.973575E-2,-2.7015964E-2,5.723992E-1,-5.283089E-3,1.899548E-2,3.638203E-2,5.2304375E-3],"categories":[],"categories_nodes":[],"categories_segments":[],"categories_sizes":[],"default_left":[0,0,0,0,0,0,0,0,0,0,0,0,0],"id":67,"left_children":[1,3,-1,-1,5,-1,7,9,11,-1,-1,-1,-1],"loss_changes":[1.0680308E2,9.4743965E1,0E0,0E0,7.0762634E1,0E0,6.2339878E1,5.8703697E1,1.3841373E1,0E0,0E0,0E0,0E0],"parents":[2147483647,0,0,1,1,4,4,6,6,7,7,8,8],"right_children":[2,4,-1,-1,6,-1,8,10,12,-1,-1,-1,-1],"split_conditions":[2.2E2,1.26E2,5.147446E-2,-4.975448E-2,5.7E0,-4.945538E-2,1E0,1E0,8E1,-5.283089E-3,1.899548E-2,3.638203E-2,5.2304375E-3],"split_indices":[6,6,0,0,5,0,3,2,1,0,0,0,0],"split_type":[0,0,0,0,0,0,0,0,0,0,0,0,0],"sum_hessian":[2.2870935E3,2.1925002E3,9.459317E1,1.0024289E2,2.0922576E3,6.954573E1,2.0227117E3,1.8320647E3,1.90647E2,1.5359539E3,2.9611087E2,1.4272626E2,4.7920746E1],"tree_param":{"num_deleted":"0","num_feature":"12","num_nodes":"13","size_leaf_vector":"1"}},{"base_weights":[-5.059942E-3,-4.8970412E-2,5.1035564E-2,-4.971764E-2,-5.2767294E-3,-1.3593479E-1,2.4673072E-1,-2.8192633E-1,1.7218445E-1,9.8416656E-2,5.0433284E-1,-1.5503639E-2,4.976303E-2,4.9463334E-3,4.1693877E-2,1.5241909E-2,-5.8314353E-2,2.0296646E-2,5.296278E-2],"categories":[],"categories_nodes":[],"categories_segments":[],"categories_sizes":[],"default_left":[0,0,0,0,0,0,0,0,0,0,0,0,0,0,0,0,0,0,0],"id":68,"left_children":[1,3,-1,-1,5,7,9,11,13,15,17,-1,-1,-1,-1,-1,-1,-1,-1],"loss_changes":[1.0253282E2,9.01611E1,0E0,0E0,6.87649E1,6.1914192E1,2.7194336E1,3.3868042E1,2.1380424E1,1.188195E2,1.378373E1,0E0,0E0,0E0,0E0,0E0,0E0,0E0,0E0],"parents":[2147483647,0,0,1,1,4,4,5,5,6,6,7,7,8,8,9,9,10,10],"right_children":[2,4,-1,-1,6,8,10,12,14,16,18,-1,-1,-1,-1,-1,-1,-1,-1],"split_conditions":[6.8E0,1.26E2,5.1035564E-2,-4.971764E-2,6.6E1,3.284E1,1.59E2,2.2E2,4.773E1,1.58E2,3.469E1,-1.5503639E-2,4.976303E-2,4.9463334E-3,4.1693877E-2,1.5241909E-2,-5.8314353E-2,2.0296646E-2,5.296278E-2],"split_indices":[5,6,0,0,1,4,6,6,4,6,4,0,0,0,0,0,0,0,0],"split_type":[0,0,0,0,0,0,0,0,0,0,0,0,0,0,0,0,0,0,0],"sum_hessian":[2.2742678E3,2.181822E3,9.244559E1,9.542359E1,2.0863984E3,1.3743179E3,7.120807E2,9.325477E2,4.4177014E2,4.52777E2,2.5930365E2,9.131804E2,1.9367311E1,3.987707E2,4.2999447E1,3.898979E2,6.287912E1,2.2171948E2,3.7584183E1],"tree_param":{"num_deleted":"0","num_feature":"12","num_nodes":"19","size_leaf_vector":"1"}},{"base_weights":[-4.8979856E-3,-4.664539E-2,5.126335E-2,-4.9609914E-2,-4.6180356E-3,-4.950028E-2,2.7626086E-2,-1.1398741E-3,5.066199E-2,-6.0912212E-3,1.1198157E-2],"categories":[],"categories_nodes":[],"categories_segments":[],"categories_sizes":[],"default_left":[0,0,0,0,0,0,0,0,0,0,0],"id":69,"left_children":[1,3,-1,-1,5,-1,7,9,-1,-1,-1],"loss_changes":[9.72612E1,8.636211E1,0E0,0E0,6.6174194E1,0E0,5.7183643E1,5.3291798E1,0E0,0E0,0E0],"parents":[2147483647,0,0,1,1,4,4,6,6,7,7],"right_children":[2,4,-1,-1,6,-1,8,10,-1,-1,-1],"split_conditions":[2.2E2,5.7E0,5.126335E-2,-4.9609914E-2,1.26E2,-4.950028E-2,6.8E0,6.6E1,5.066199E-2,-6.0912212E-3,1.1198157E-2],"split_indices":[6,5,0,0,6,0,5,1,0,0,0],"split_type":[0,0,0,0,0,0,0,0,0,0,0],"sum_hessian":[2.259423E3,2.1723438E3,8.707944E1,9.1483894E1,2.0808599E3,6.499182E1,2.0158679E3,1.9596721E3,5.6195827E1,1.2760187E3,6.8365344E2],"tree_param":{"num_deleted":"0","num_feature":"12","num_nodes":"11","size_leaf_vector":"1"}},{"base_weights":[-4.7093607E-3,-4.463901E-2,5.1143713E-2,-4.957553E-2,-4.4264384E-3,-6.5957433E-1,4.2447634E-2,-6.733074E-1,2.7173448E-2,1.4971093E-2,5.052333E-2,-4.1907724E-2,-2.832199E-2,-4.9185555E-2,2.0186908E-3],"categories":[],"categories_nodes":[],"categories_segments":[],"categories_sizes":[],"default_left":[0,0,0,0,0,0,0,0,0,0,0,0,0,0,0],"id":70,"left_children":[1,3,-1,-1,5,7,9,11,-1,13,-1,-1,-1,-1,-1],"loss_changes":[9.217041E1,8.232464E1,0E0,0E0,6.375438E1,2.6560974E0,5.1518707E1,1.9475403E0,0E0,4.7862255E1,0E0,0E0,0E0,0E0,0E0],"parents":[2147483647,0,0,1,1,4,4,5,5,6,6,7,7,9,9],"right_children":[2,4,-1,-1,6,8,10,12,-1,14,-1,-1,-1,-1,-1],"split_conditions":[2.2E2,5.7E0,5.1143713E-2,-4.957553E-2,2.6E1,6.8E0,6.8E0,1.2E1,2.7173448E-2,1.26E2,5.052333E-2,-4.1907724E-2,-2.832199E-2,-4.9185555E-2,2.0186908E-3],"split_indices":[6,5,0,0,1,5,5,1,0,6,0,0,0,0,0],"split_type":[0,0,0,0,0,0,0,0,0,0,0,0,0,0,0],"sum_hessian":[2.2442446E3,2.161221E3,8.302375E1,8.708168E1,2.0741392E3,1.376177E2,1.9365215E3,1.3649985E2,1.1178591E0,1.8840592E3,5.246224E1,5.0995148E1,8.55047E1,4.5798862E1,1.8382604E3],"tree_param":{"num_deleted":"0","num_feature":"12","num_nodes":"15","size_leaf_vector":"1"}},{"base_weights":[-4.553418E-3,-4.2968776E-2,5.0729908E-2,-4.9540184E-2,-4.495803E-3,-4.940332E-2,2.4972405E-2,-2.7784787E-2,5.172565E-1,-9.686698E-3,6.779212E-3,3.3230163E-2,3.6017715E-3],"categories":[],"categories_nodes":[],"categories_segments":[],"categories_sizes":[],"default_left":[0,0,0,0,0,0,0,0,0,0,0,0,0],"id":71,"left_children":[1,3,-1,-1,5,-1,7,9,11,-1,-1,-1,-1],"loss_changes":[8.738597E1,7.842778E1,0E0,0E0,5.9961884E1,0E0,5.218489E1,4.923996E1,1.271093E1,0E0,0E0,0E0,0E0],"parents":[2147483647,0,0,1,1,4,4,6,6,7,7,8,8],"right_children":[2,4,-1,-1,6,-1,8,10,12,-1,-1,-1,-1],"split_conditions":[6.8E0,5.7E0,5.0729908E-2,-4.9540184E-2,1.26E2,-4.940332E-2,1E0,2.785E1,8E1,-9.686698E-3,6.779212E-3,3.3230163E-2,3.6017715E-3],"split_indices":[5,5,0,0,6,0,3,4,1,0,0,0,0],"split_type":[0,0,0,0,0,0,0,0,0,0,0,0,0],"sum_hessian":[2.2299067E3,2.14983E3,8.007671E1,8.2893E1,2.066937E3,5.9178715E1,2.0077583E3,1.8142698E3,1.9348843E2,8.999354E2,9.1433435E2,1.4500577E2,4.848267E1],"tree_param":{"num_deleted":"0","num_feature":"12","num_nodes":"13","size_leaf_vector":"1"}},{"base_weights":[-4.426067E-3,-4.2003598E-2,5.0995003E-2,-4.95038E-2,-5.266311E-3,-6.446505E-1,3.8676385E-2,-6.578358E-1,2.6171247E-2,1.3668526E-2,5.0288428E-2,-4.140351E-2,-2.7469976E-2,-5.7702768E-3,9.871736E-3],"categories":[],"categories_nodes":[],"categories_segments":[],"categories_sizes":[],"default_left":[0,0,0,0,0,0,0,0,0,0,0,0,0,0,0],"id":72,"left_children":[1,3,-1,-1,5,7,9,11,-1,13,-1,-1,-1,-1,-1],"loss_changes":[8.548662E1,7.4607086E1,0E0,0E0,5.799599E1,2.388733E0,4.6700844E1,1.9762383E0,0E0,4.47075E1,0E0,0E0,0E0,0E0,0E0],"parents":[2147483647,0,0,1,1,4,4,5,5,6,6,7,7,9,9],"right_children":[2,4,-1,-1,6,8,10,12,-1,14,-1,-1,-1,-1,-1],"split_conditions":[2.2E2,5.7E0,5.0995003E-2,-4.95038E-2,2.6E1,6.8E0,6.8E0,1.2E1,2.6171247E-2,1E0,5.0288428E-2,-4.140351E-2,-2.7469976E-2,-5.7702768E-3,9.871736E-3],"split_indices":[6,5,0,0,1,5,5,1,0,0,0,0,0,0,0],"split_type":[0,0,0,0,0,0,0,0,0,0,0,0,0,0,0],"sum_hessian":[2.2188005E3,2.141209E3,7.759152E1,7.89075E1,2.0623015E3,1.317413E2,1.93056E3,1.3070274E2,1.0385575E0,1.882885E3,4.767505E1,4.827666E1,8.242609E1,1.1062483E3,7.766368E2],"tree_param":{"num_deleted":"0","num_feature":"12","num_nodes":"15","size_leaf_vector":"1"}},{"base_weights":[-4.248721E-3,-4.0164083E-2,5.088241E-2,-4.955225E-2,-4.0142103E-3,-6.350405E-1,3.837666E-2,-6.4814657E-1,2.5835086E-2,-9.042503E-3,5.4412985E-1,-4.110169E-2,-2.6909769E-2,-7.5046006E-3,9.017187E-3,3.9763253E-2,9.792449E-3],"categories":[],"categories_nodes":[],"categories_segments":[],"categories_sizes":[],"default_left":[0,0,0,0,0,0,0,0,0,0,0,0,0,0,0,0,0],"id":73,"left_children":[1,3,-1,-1,5,7,9,11,-1,13,15,-1,-1,-1,-1,-1,-1],"loss_changes":[8.103912E1,7.3314865E1,0E0,0E0,5.5017708E1,2.2892227E0,4.6227966E1,2.0135689E0,0E0,4.7125526E1,1.42966385E1,0E0,0E0,0E0,0E0,0E0,0E0],"parents":[2147483647,0,0,1,1,4,4,5,5,6,6,7,7,9,9,10,10],"right_children":[2,4,-1,-1,6,8,10,12,-1,14,16,-1,-1,-1,-1,-1,-1],"split_conditions":[2.2E2,1.26E2,5.088241E-2,-4.955225E-2,2.6E1,6.8E0,4.091E1,1.2E1,2.5835086E-2,1E0,1.58E2,-4.110169E-2,-2.6909769E-2,-7.5046006E-3,9.017187E-3,3.9763253E-2,9.792449E-3],"split_indices":[6,6,0,0,1,5,4,1,0,0,6,0,0,0,0,0,0],"split_type":[0,0,0,0,0,0,0,0,0,0,0,0,0,0,0,0,0],"sum_hessian":[2.2059287E3,2.13196E3,7.39687E1,7.711531E1,2.0548447E3,1.2847015E2,1.9263745E3,1.2745702E2,1.0131261E0,1.7621394E3,1.6423518E2,4.6864574E1,8.0592445E1,1.01007306E3,7.520663E2,9.468045E1,6.9554726E1],"tree_param":{"num_deleted":"0","num_feature":"12","num_nodes":"17","size_leaf_vector":"1"}},{"base_weights":[-4.1185743E-3,-3.8613193E-2,5.0502267E-2,-4.945104E-2,-4.040335E-3,-4.9288273E-2,2.258505E-2,-4.8427414E-2,3.5402158E-1,-9.50921E-3,7.0759035E-3,9.637417E-3,3.0999748E-2],"categories":[],"categories_nodes":[],"categories_segments":[],"categories_sizes":[],"default_left":[0,0,0,0,0,0,0,0,0,0,0,0,0],"id":74,"left_children":[1,3,-1,-1,5,-1,7,9,11,-1,-1,-1,-1],"loss_changes":[7.6910446E1,6.98549E1,0E0,0E0,5.3670704E1,0E0,4.70712E1,4.4383327E1,1.5017311E1,0E0,0E0,0E0,0E0],"parents":[2147483647,0,0,1,1,4,4,6,6,7,7,8,8],"right_children":[2,4,-1,-1,6,-1,8,10,12,-1,-1,-1,-1],"split_conditions":[6.8E0,5.7E0,5.0502267E-2,-4.945104E-2,1.26E2,-4.9288273E-2,1E0,2.918E1,1.59E2,-9.50921E-3,7.0759035E-3,9.637417E-3,3.0999748E-2],"split_indices":[5,5,0,0,6,0,2,4,6,0,0,0,0],"split_type":[0,0,0,0,0,0,0,0,0,0,0,0,0],"sum_hessian":[2.1963826E3,2.125065E3,7.131762E1,7.3620865E1,2.051444E3,5.3216957E1,1.998227E3,1.6463414E3,3.5188562E2,9.427578E2,7.035836E2,2.2013263E2,1.3175299E2],"tree_param":{"num_deleted":"0","num_feature":"12","num_nodes":"13","size_leaf_vector":"1"}},{"base_weights":[-4.002591E-3,-3.7704874E-2,5.0740253E-2,-4.9411792E-2,-4.6941927E-3,-1.20987274E-1,2.1151817E-1,-2.3898536E-1,1.6531213E-1,6.2248114E-2,4.0305054E-1,-1.3038856E-2,4.82171E-2,4.5695314E-3,3.59578E-2,-2.3294328E-2,6.067571E-3,1.7126933E-2,4.1501906E-2],"categories":[],"categories_nodes":[],"categories_segments":[],"categories_sizes":[],"default_left":[0,0,0,0,0,0,0,0,0,0,0,0,0,0,0,0,0,0,0],"id":75,"left_children":[1,3,-1,-1,5,7,9,11,13,15,17,-1,-1,-1,-1,-1,-1,-1,-1],"loss_changes":[7.513748E1,6.645658E1,0E0,0E0,5.152102E1,4.505052E1,2.0464104E1,2.5003284E1,1.5878932E1,1.2665497E1,7.8212395E0,0E0,0E0,0E0,0E0,0E0,0E0,0E0,0E0],"parents":[2147483647,0,0,1,1,4,4,5,5,6,6,7,7,8,8,9,9,10,10],"right_children":[2,4,-1,-1,6,8,10,12,14,16,18,-1,-1,-1,-1,-1,-1,-1,-1],"split_conditions":[2.2E2,5.7E0,5.0740253E-2,-4.9411792E-2,6.6E1,3.387E1,2.794E1,6.8E0,4.773E1,2.129E1,3.982E1,-1.3038856E-2,4.82171E-2,4.5695314E-3,3.59578E-2,-2.3294328E-2,6.067571E-3,1.7126933E-2,4.1501906E-2],"split_indices":[6,5,0,0,1,4,4,5,4,4,4,0,0,0,0,0,0,0,0],"split_type":[0,0,0,0,0,0,0,0,0,0,0,0,0,0,0,0,0,0,0],"sum_hessian":[2.1861768E3,2.1171057E3,6.907112E1,7.0085365E1,2.0470203E3,1.3313656E3,7.1565466E2,9.429109E2,3.8845477E2,4.0294556E2,3.127091E2,9.2690826E2,1.6002628E1,3.4374072E2,4.4714043E1,3.986226E1,3.6308328E2,2.7547195E2,3.7237167E1],"tree_param":{"num_deleted":"0","num_feature":"12","num_nodes":"19","size_leaf_vector":"1"}},{"base_weights":[-3.8208312E-3,-3.602289E-2,5.063307E-2,-4.9455345E-2,-3.4783303E-3,-6.142774E-1,3.5430215E-2,-8.004997E-1,-5.000467E-1,1.3228433E-2,4.999621E-2,-4.2656932E-2,-1.4309297E-2,-6.882337E-3,-3.6329247E-2,-1.7375678E-3,2.1751516E-2],"categories":[],"categories_nodes":[],"categories_segments":[],"categories_sizes":[],"default_left":[0,0,0,0,0,0,0,0,0,0,0,0,0,0,0,0,0],"id":76,"left_children":[1,3,-1,-1,5,7,9,11,13,15,-1,-1,-1,-1,-1,-1,-1],"loss_changes":[7.1249374E1,6.543586E1,0E0,0E0,4.852871E1,2.2010498E0,4.109628E1,9.694843E-1,6.341236E0,3.8014145E1,0E0,0E0,0E0,0E0,0E0,0E0,0E0],"parents":[2147483647,0,0,1,1,4,4,5,5,6,6,7,7,8,8,9,9],"right_children":[2,4,-1,-1,6,8,10,12,14,16,-1,-1,-1,-1,-1,-1,-1],"split_conditions":[2.2E2,1.26E2,5.063307E-2,-4.9455345E-2,2.6E1,1.2E1,6.8E0,2E2,2.515E1,1E0,4.999621E-2,-4.2656932E-2,-1.4309297E-2,-6.882337E-3,-3.6329247E-2,-1.7375678E-3,2.1751516E-2],"split_indices":[6,6,0,0,1,1,5,6,4,3,0,0,0,0,0,0,0],"split_type":[0,0,0,0,0,0,0,0,0,0,0,0,0,0,0,0,0],"sum_hessian":[2.1745808E3,2.1087407E3,6.584015E1,6.8658195E1,2.0400825E3,1.2128728E2,1.9187953E3,4.3828716E1,7.7458565E1,1.8766111E3,4.2184177E1,3.9161797E1,4.666922E0,3.0413229E1,4.7045334E1,1.6857728E3,1.9083833E2],"tree_param":{"num_deleted":"0","num_feature":"12","num_nodes":"17","size_leaf_vector":"1"}},{"base_weights":[-3.6834434E-3,-3.4459163E-2,5.0527938E-2,-4.941129E-2,-3.348108E-3,-4.909251E-2,2.077908E-2,-4.6687413E-2,3.2880092E-1,-4.698136E-3,2.244543E-2,1.0021112E-2,2.7709132E-2],"categories":[],"categories_nodes":[],"categories_segments":[],"categories_sizes":[],"default_left":[0,0,0,0,0,0,0,0,0,0,0,0,0],"id":77,"left_children":[1,3,-1,-1,5,-1,7,9,11,-1,-1,-1,-1],"loss_changes":[6.7577194E1,6.234163E1,0E0,0E0,4.808073E1,0E0,4.1322315E1,3.8265987E1,1.02262535E1,0E0,0E0,0E0,0E0],"parents":[2147483647,0,0,1,1,4,4,6,6,7,7,8,8],"right_children":[2,4,-1,-1,6,-1,8,10,12,-1,-1,-1,-1],"split_conditions":[2.2E2,1.26E2,5.0527938E-2,-4.941129E-2,5.7E0,-4.909251E-2,1E0,1E0,1.59E2,-4.698136E-3,2.244543E-2,1.0021112E-2,2.7709132E-2],"split_indices":[6,6,0,0,5,0,2,3,6,0,0,0,0],"split_type":[0,0,0,0,0,0,0,0,0,0,0,0,0],"sum_hessian":[2.1628464E3,2.1000884E3,6.2758137E1,6.5367355E1,2.034721E3,4.800815E1,1.9867128E3,1.6304429E3,3.5626996E2,1.4891975E3,1.4124535E2,2.2818422E2,1.2808574E2],"tree_param":{"num_deleted":"0","num_feature":"12","num_nodes":"13","size_leaf_vector":"1"}},{"base_weights":[-3.5672735E-3,-3.3726085E-2,5.0230827E-2,-4.9365934E-2,-4.0200683E-3,-4.903699E-2,1.896561E-2,-5.4860854E-1,5.5038273E-2,-3.134921E-2,-1.3508624E-2,-2.579481E-3,1.2176208E-2],"categories":[],"categories_nodes":[],"categories_segments":[],"categories_sizes":[],"default_left":[0,0,0,0,0,0,0,0,0,0,0,0,0],"id":78,"left_children":[1,3,-1,-1,5,-1,7,9,11,-1,-1,-1,-1],"loss_changes":[6.55559E1,5.9294083E1,0E0,0E0,4.5617313E1,0E0,4.067816E1,2.4216385E0,3.754776E1,0E0,0E0,0E0,0E0],"parents":[2147483647,0,0,1,1,4,4,6,6,7,7,8,8],"right_children":[2,4,-1,-1,6,-1,8,10,12,-1,-1,-1,-1],"split_conditions":[6.8E0,1.26E2,5.0230827E-2,-4.9365934E-2,5.7E0,-4.903699E-2,2.129E1,1.6E2,6.6E1,-3.134921E-2,-1.3508624E-2,-2.579481E-3,1.2176208E-2],"split_indices":[5,6,0,0,5,0,4,6,1,0,0,0,0],"split_type":[0,0,0,0,0,0,0,0,0,0,0,0,0],"sum_hessian":[2.153931E3,2.092308E3,6.162276E1,6.2235954E1,2.0300721E3,4.5718296E1,1.9843539E3,1.1773175E2,1.8666221E3,9.0894485E1,2.683727E1,1.1926547E3,6.7396747E2],"tree_param":{"num_deleted":"0","num_feature":"12","num_nodes":"13","size_leaf_vector":"1"}},{"base_weights":[-3.5004015E-3,-3.2429446E-2,5.0397903E-2,-4.9319178E-2,-4.082108E-3,-4.8979398E-2,1.7804353E-2,-2.3469848E-3,4.979343E-2,-2.7497819E-2,1.5987362E-3],"categories":[],"categories_nodes":[],"categories_segments":[],"categories_sizes":[],"default_left":[0,0,0,0,0,0,0,0,0,0,0],"id":79,"left_children":[1,3,-1,-1,5,-1,7,9,-1,-1,-1],"loss_changes":[6.285193E1,5.6464287E1,0E0,0E0,4.333541E1,0E0,3.9132595E1,3.659786E1,0E0,0E0,0E0],"parents":[2147483647,0,0,1,1,4,4,6,6,7,7],"right_children":[2,4,-1,-1,6,-1,8,10,-1,-1,-1],"split_conditions":[2.2E2,1.26E2,5.0397903E-2,-4.9319178E-2,5.7E0,-4.8979398E-2,6.8E0,2.129E1,4.979343E-2,-2.7497819E-2,1.5987362E-3],"split_indices":[6,6,0,0,5,0,5,4,0,0,0],"split_type":[0,0,0,0,0,0,0,0,0,0,0],"sum_hessian":[2.1458938E3,2.087166E3,5.8727764E1,5.9256317E1,2.0279097E3,4.35396E1,1.9843701E3,1.9452883E3,3.9081734E1,1.1384507E2,1.8314432E3],"tree_param":{"num_deleted":"0","num_feature":"12","num_nodes":"11","size_leaf_vector":"1"}},{"base_weights":[-3.3732844E-3,-3.1006906E-2,5.0295975E-2,-4.9270924E-2,-3.9208764E-3,-5.8750296E-1,3.1036414E-2,-7.802546E-1,-4.7390124E-1,-1.1565024E-2,4.71638E-1,-4.185864E-2,-1.2492965E-2,-4.7285156E-3,-3.5600506E-2,-7.2006932E-3,8.167318E-3,3.5185676E-2,7.3361457E-3],"categories":[],"categories_nodes":[],"categories_segments":[],"categories_sizes":[],"default_left":[0,0,0,0,0,0,0,0,0,0,0,0,0,0,0,0,0,0,0],"id":80,"left_children":[1,3,-1,-1,5,7,9,11,13,15,17,-1,-1,-1,-1,-1,-1,-1,-1],"loss_changes":[5.962883E1,5.3789284E1,0E0,0E0,4.131799E1,2.1366463E0,3.587523E1,1.0255127E0,6.6675644E0,4.041448E1,1.260289E1,0E0,0E0,0E0,0E0,0E0,0E0,0E0,0E0],"parents":[2147483647,0,0,1,1,4,4,5,5,6,6,7,7,8,8,9,9,10,10],"right_children":[2,4,-1,-1,6,8,10,12,14,16,18,-1,-1,-1,-1,-1,-1,-1,-1],"split_conditions":[2.2E2,1.26E2,5.0295975E-2,-4.9270924E-2,2.6E1,1.2E1,4.091E1,2E2,2.515E1,1E0,1.58E2,-4.185864E-2,-1.2492965E-2,-4.7285156E-3,-3.5600506E-2,-7.2006932E-3,8.167318E-3,3.5185676E-2,7.3361457E-3],"split_indices":[6,6,0,0,1,1,4,6,4,0,6,0,0,0,0,0,0,0,0],"split_type":[0,0,0,0,0,0,0,0,0,0,0,0,0,0,0,0,0,0,0],"sum_hessian":[2.1358506E3,2.0798745E3,5.597601E1,5.642113E1,2.0234534E3,1.1346391E2,1.9099894E3,3.9898518E1,7.356539E1,1.7424838E3,1.6750569E2,3.5509502E1,4.389018E0,2.8908487E1,4.4656906E1,9.917065E2,7.507772E2,9.703275E1,7.047294E1],"tree_param":{"num_deleted":"0","num_feature":"12","num_nodes":"19","size_leaf_vector":"1"}},{"base_weights":[-3.2979914E-3,-3.0388352E-2,5.002476E-2,-4.9206253E-2,-3.695855E-3,-1.6546668E-1,1.1783611E-1,-2.412198E-1,2.4919301E-1,-1.39790345E-2,3.4854966E-1,-1.4842733E-2,1.1183608E-2,-7.0898915E-3,1.909517E-2,8.368039E-3,-5.8589973E-2,4.1852262E-2,1.3291001E-2],"categories":[],"categories_nodes":[],"categories_segments":[],"categories_sizes":[],"default_left":[0,0,0,0,0,0,0,0,0,0,0,0,0,0,0,0,0,0,0],"id":81,"left_children":[1,3,-1,-1,5,7,9,11,13,15,17,-1,-1,-1,-1,-1,-1,-1,-1],"loss_changes":[5.7939354E1,5.2809536E1,0E0,0E0,3.97152E1,2.7280437E1,3.5084946E1,1.9030445E1,7.0252943E0,1.5452794E2,1.6728943E1,0E0,0E0,0E0,0E0,0E0,0E0,0E0,0E0],"parents":[2147483647,0,0,1,1,4,4,5,5,6,6,7,7,8,8,9,9,10,10],"right_children":[2,4,-1,-1,6,8,10,12,14,16,18,-1,-1,-1,-1,-1,-1,-1,-1],"split_conditions":[6.8E0,5.7E0,5.002476E-2,-4.9206253E-2,5.7E1,3.935E1,1.59E2,1E0,3.9E1,1.58E2,5.8E0,-1.4842733E-2,1.1183608E-2,-7.0898915E-3,1.909517E-2,8.368039E-3,-5.8589973E-2,4.1852262E-2,1.3291001E-2],"split_indices":[5,5,0,0,1,4,6,2,1,6,5,0,0,0,0,0,0,0,0],"split_type":[0,0,0,0,0,0,0,0,0,0,0,0,0,0,0,0,0,0,0],"sum_hessian":[2.1285444E3,2.073553E3,5.49913E1,5.5476597E1,2.0180764E3,8.655646E2,1.1525118E3,7.322162E2,1.3334843E2,7.340573E2,4.1845456E2,6.542784E2,7.793775E1,3.377428E1,9.9574165E1,6.3539594E2,9.866135E1,5.9283585E1,3.59171E2],"tree_param":{"num_deleted":"0","num_feature":"12","num_nodes":"19","size_leaf_vector":"1"}},{"base_weights":[-3.2594397E-3,-2.9129863E-2,5.016011E-2,-4.9204275E-2,-3.6422694E-3,-4.8847806E-2,1.614875E-2,-2.157508E-3,4.9565546E-2,-2.6373286E-2,1.47326E-3],"categories":[],"categories_nodes":[],"categories_segments":[],"categories_sizes":[],"default_left":[0,0,0,0,0,0,0,0,0,0,0],"id":82,"left_children":[1,3,-1,-1,5,-1,7,9,-1,-1,-1],"loss_changes":[5.5257538E1,5.035284E1,0E0,0E0,3.8852356E1,0E0,3.529364E1,3.2267277E1,0E0,0E0,0E0],"parents":[2147483647,0,0,1,1,4,4,6,6,7,7],"right_children":[2,4,-1,-1,6,-1,8,10,-1,-1,-1],"split_conditions":[2.2E2,1.26E2,5.016011E-2,-4.9204275E-2,5.7E0,-4.8847806E-2,6.8E0,2.129E1,4.9565546E-2,-2.6373286E-2,1.47326E-3],"split_indices":[6,6,0,0,5,0,5,4,0,0,0],"split_type":[0,0,0,0,0,0,0,0,0,0,0],"sum_hessian":[2.1200994E3,2.067916E3,5.218334E1,5.2779808E1,2.0151362E3,3.9194683E1,1.9759415E3,1.940511E3,3.5430508E1,1.0929249E2,1.8312185E3],"tree_param":{"num_deleted":"0","num_feature":"12","num_nodes":"11","size_leaf_vector":"1"}},{"base_weights":[-3.139393E-3,-2.7846212E-2,5.0060134E-2,-4.9152005E-2,-3.4984741E-3,-4.8782904E-2,1.537424E-2,-2.0807039E-3,4.9453817E-2,-3.1272785E-3,1.3519502E-2],"categories":[],"categories_nodes":[],"categories_segments":[],"categories_sizes":[],"default_left":[0,0,0,0,0,0,0,0,0,0,0],"id":83,"left_children":[1,3,-1,-1,5,-1,7,9,-1,-1,-1],"loss_changes":[5.243749E1,4.7960316E1,0E0,0E0,3.6931477E1,0E0,3.3564934E1,3.1994415E1,0E0,0E0,0E0],"parents":[2147483647,0,0,1,1,4,4,6,6,7,7],"right_children":[2,4,-1,-1,6,-1,8,10,-1,-1,-1],"split_conditions":[2.2E2,1.26E2,5.0060134E-2,-4.9152005E-2,5.7E0,-4.8782904E-2,6.8E0,1E0,4.9453817E-2,-3.1272785E-3,1.3519502E-2],"split_indices":[6,6,0,0,5,0,5,2,0,0,0],"split_type":[0,0,0,0,0,0,0,0,0,0,0],"sum_hessian":[2.11109E3,2.061353E3,4.9737015E1,5.0258804E1,2.0110941E3,3.733281E1,1.9737614E3,1.9399824E3,3.377898E1,1.5882902E3,3.5169217E2],"tree_param":{"num_deleted":"0","num_feature":"12","num_nodes":"11","size_leaf_vector":"1"}},{"base_weights":[-3.0037123E-3,-2.660339E-2,4.9960773E-2,-4.9097892E-2,-3.3396876E-3,-5.605324E-1,2.811911E-2,-7.608982E-1,-4.459253E-1,-8.199341E-2,1.7874677E-1,-4.1100886E-2,-1.0673654E-2,-2.7188389E-3,-3.4774963E-2,-2.1660473E-2,-1.7248101E-4,5.581306E-3,2.2027707E-2],"categories":[],"categories_nodes":[],"categories_segments":[],"categories_sizes":[],"default_left":[0,0,0,0,0,0,0,0,0,0,0,0,0,0,0,0,0,0,0],"id":84,"left_children":[1,3,-1,-1,5,7,9,11,13,15,17,-1,-1,-1,-1,-1,-1,-1,-1],"loss_changes":[4.9764786E1,4.568056E1,0E0,0E0,3.5207047E1,2.125595E0,3.154972E1,1.083952E0,6.870924E0,3.0316906E1,1.4066095E1,0E0,0E0,0E0,0E0,0E0,0E0,0E0,0E0],"parents":[2147483647,0,0,1,1,4,4,5,5,6,6,7,7,8,8,9,9,10,10],"right_children":[2,4,-1,-1,6,8,10,12,14,16,18,-1,-1,-1,-1,-1,-1,-1,-1],"split_conditions":[2.2E2,1.26E2,4.9960773E-2,-4.9097892E-2,2.6E1,1.2E1,1E0,2E2,2.515E1,2.522E1,3.448E1,-4.1100886E-2,-1.0673654E-2,-2.7188389E-3,-3.4774963E-2,-2.1660473E-2,-1.7248101E-4,5.581306E-3,2.2027707E-2],"split_indices":[6,6,0,0,1,1,0,6,4,4,4,0,0,0,0,0,0,0,0],"split_type":[0,0,0,0,0,0,0,0,0,0,0,0,0,0,0,0,0,0,0],"sum_hessian":[2.101913E3,2.0545083E3,4.740492E1,4.7860115E1,2.0066482E3,1.0634079E2,1.9003074E3,3.6641617E1,6.969917E1,1.0980566E3,8.0225073E2,3.251026E1,4.131352E0,2.7606344E1,4.209283E1,1.9985782E2,8.9819885E2,6.396797E2,1.62571E2],"tree_param":{"num_deleted":"0","num_feature":"12","num_nodes":"19","size_leaf_vector":"1"}},{"base_weights":[-2.9571517E-3,-2.6221642E-2,4.9733464E-2,-4.9037684E-2,-3.2981832E-3,-1.0191063E-1,1.7197265E-1,-2.1773574E-1,1.170398E-1,5.2596115E-2,3.850548E-1,-1.7045682E-2,-3.0556563E-3,2.8358202E-3,3.1454884E-2,1.1454071E-2,-5.7965387E-2,1.5120566E-2,4.2433817E-2],"categories":[],"categories_nodes":[],"categories_segments":[],"categories_sizes":[],"default_left":[0,0,0,0,0,0,0,0,0,0,0,0,0,0,0,0,0,0,0],"id":85,"left_children":[1,3,-1,-1,5,7,9,11,13,15,17,-1,-1,-1,-1,-1,-1,-1,-1],"loss_changes":[4.8686115E1,4.4848225E1,0E0,0E0,3.463206E1,3.2543385E1,1.8331324E1,1.6164978E1,1.3687794E1,9.941266E1,9.662987E0,0E0,0E0,0E0,0E0,0E0,0E0,0E0,0E0],"parents":[2147483647,0,0,1,1,4,4,5,5,6,6,7,7,8,8,9,9,10,10],"right_children":[2,4,-1,-1,6,8,10,12,14,16,18,-1,-1,-1,-1,-1,-1,-1,-1],"split_conditions":[6.8E0,5.7E0,4.9733464E-2,-4.9037684E-2,6.6E1,3.284E1,1.59E2,1E0,4.773E1,1.58E2,3.469E1,-1.7045682E-2,-3.0556563E-3,2.8358202E-3,3.1454884E-2,1.1454071E-2,-5.7965387E-2,1.5120566E-2,4.2433817E-2],"split_indices":[5,5,0,0,1,4,6,0,4,6,4,0,0,0,0,0,0,0,0],"split_type":[0,0,0,0,0,0,0,0,0,0,0,0,0,0,0,0,0,0,0],"sum_hessian":[2.0955774E3,2.048774E3,4.6803368E1,4.706829E1,2.0017056E3,1.2812538E3,7.204519E2,8.379712E2,4.4328253E2,4.6255707E2,2.578948E2,4.684085E2,3.695627E2,3.9755856E2,4.5723957E1,4.0446695E2,5.809013E1,2.2028065E2,3.761415E1],"tree_param":{"num_deleted":"0","num_feature":"12","num_nodes":"19","size_leaf_vector":"1"}},{"base_weights":[-2.894648E-3,-2.503712E-2,4.9832303E-2,-4.902489E-2,-3.114054E-3,-4.863428E-2,1.3957408E-2,-1.9079435E-3,4.922299E-2,-2.1666249E-3,1.8242186E-2],"categories":[],"categories_nodes":[],"categories_segments":[],"categories_sizes":[],"default_left":[0,0,0,0,0,0,0,0,0,0,0],"id":86,"left_children":[1,3,-1,-1,5,-1,7,9,-1,-1,-1],"loss_changes":[4.626427E1,4.2831127E1,0E0,0E0,3.3118492E1,0E0,3.0279785E1,2.9425547E1,0E0,0E0,0E0],"parents":[2147483647,0,0,1,1,4,4,6,6,7,7],"right_children":[2,4,-1,-1,6,-1,8,10,-1,-1,-1],"split_conditions":[2.2E2,1.26E2,